{"haggle/value/kernel:0": [[-0.04460855945944786], [-0.016499778255820274], [0.008072561584413052], [0.025510812178254128], [-0.01533771026879549], [0.06104317307472229], [0.010761006735265255], [0.03818260133266449], [-0.014421150088310242], [0.08044540137052536], [0.12961828708648682], [-0.006081607658416033], [0.12130840122699738], [-0.0050572180189192295], [-0.11053800582885742], [0.0036052241921424866], [-0.013240629807114601], [-0.1294083297252655], [0.026183122768998146], [-0.00900348648428917], [-0.014227449893951416], [-0.009619398042559624], [-0.008714944124221802], [-0.0220908485352993], [0.008457362651824951], [0.0010952982120215893], [0.0039329519495368], [0.2810240685939789], [0.012522779405117035], [0.006232779938727617], [-0.004684715531766415], [-0.04712340980768204], [0.007815014570951462], [-0.01487194187939167], [-0.01644252799451351], [0.11533399671316147], [-0.015354909934103489], [-0.002883822889998555], [0.00019282149150967598], [-0.000595320132561028], [-0.005192288663238287], [-0.27234792709350586], [0.0032589922193437815], [0.008305993862450123], [0.1170082613825798], [0.04200959950685501], [-0.03448154777288437], [0.04372363165020943], [-0.07057777792215347], [0.014066429808735847], [-0.05822458863258362], [0.013389061205089092], [-0.006873360835015774], [0.005748322699218988], [-0.006148615851998329], [-0.032573144882917404], [0.02503782883286476], [0.1577499359846115], [-0.012961498461663723], [0.0018441536230966449], [0.007779569365084171], [0.003999473061412573], [-0.00019449526735115796], [0.0020559905096888542], [-0.02140623889863491], [0.02680356800556183], [0.04065658524632454], [0.010472525842487812], [-0.24113720655441284], [0.00379068567417562], [-0.026471534743905067], [-0.02082829922437668], [0.013304205611348152], [0.009234040044248104], [0.011451225727796555], [0.010961027815937996], [0.012593986466526985], [-0.0053808861412107944], [-0.0012553861597552896], [0.028366897255182266], [-0.04480855539441109], [-0.013075137510895729], [-0.004795508924871683], [-0.023998187854886055], [-0.008774417452514172], [0.028829943388700485], [0.03326086699962616], [0.014085393399000168], [0.0003201744402758777], [-0.0038850188720971346], [-0.013229324482381344], [-0.01660672202706337], [0.0171966552734375], [0.003321615047752857], [0.022582517936825752], [0.013476131483912468], [0.02899530902504921], [0.0032490959856659174], [-0.009616411291062832], [0.010862167924642563], [0.011859564110636711], [0.20046672224998474], [-0.017042862251400948], [-0.00030961251468397677], [-0.04103076085448265], [-0.0024902895092964172], [-0.022874392569065094], [0.02197960950434208], [-0.003503504442051053], [-0.007043249439448118], [0.009582897648215294], [-0.08786521852016449], [-0.0039994316175580025], [-0.00751894386485219], [0.004987169522792101], [-0.000429743027780205], [-0.08437658846378326], [0.022643733769655228], [-0.1294957846403122], [-0.0038816339801996946], [-0.01986631564795971], [0.0012814388610422611], [-0.015895696356892586], [0.017394954338669777], [0.03196268156170845], [0.009586233645677567], [-0.012871826998889446], [0.14459583163261414]], "haggle/lstm/bias:0": [-0.8812587857246399, 0.42873725295066833, -0.13188420236110687, 0.6669946908950806, -0.2928648889064789, 0.17179366946220398, 0.36723700165748596, 0.3642829656600952, 0.09955804795026779, -0.33530551195144653, 0.1798837035894394, 0.18767739832401276, -0.6666551828384399, 0.25194621086120605, 0.21342109143733978, 0.10550769418478012, 0.19113749265670776, 0.4793108403682709, 0.29917794466018677, -0.059615783393383026, -0.18313473463058472, 0.9282581210136414, 0.1962987333536148, 0.16983407735824585, -0.32027602195739746, 0.34438687562942505, 0.42686769366264343, -0.18416020274162292, 0.37390780448913574, 0.761383593082428, 0.31726059317588806, 0.3248650133609772, -0.11407694965600967, -0.07326271384954453, 0.3212142288684845, 0.04835129529237747, 0.1601337343454361, 0.1611175239086151, 0.05121442303061485, 1.597155213356018, 0.6279318928718567, -0.12619520723819733, 0.2212173044681549, 0.4413728415966034, -0.2459723800420761, 0.6361365914344788, -0.5094415545463562, 0.016850456595420837, 0.5209948420524597, 0.9214701056480408, -0.26650863885879517, -0.36446601152420044, 0.2727402448654175, -0.6947677135467529, 0.15826880931854248, 0.3129476010799408, 0.660763144493103, -0.27500370144844055, 0.2901342213153839, 0.19998225569725037, 0.49108216166496277, -0.07534843683242798, 0.7833337187767029, 1.0338188409805298, -0.26567763090133667, -0.025663387030363083, 0.30598413944244385, 0.36138805747032166, -0.31606775522232056, -0.05318751186132431, 0.06676891446113586, -0.034052517265081406, 0.23859523236751556, -0.035877421498298645, 0.45434585213661194, -0.7379832863807678, 0.20856702327728271, 0.2752939760684967, 0.4017156958580017, 0.4039500653743744, -0.11475624889135361, 0.31153514981269836, 1.051088571548462, 0.7325552701950073, 0.18872207403182983, 1.1975346803665161, 0.3378908038139343, -0.13784676790237427, 0.3536146581172943, -0.07337439060211182, -0.2630707323551178, 1.0294532775878906, -0.24319304525852203, 0.44163888692855835, -0.5197403430938721, 0.2971920371055603, 0.08860871940851212, 0.13988719880580902, 0.6372931599617004, 0.9972935318946838, -0.14402273297309875, -0.5470476150512695, 0.13541622459888458, -0.037325963377952576, -0.12037252634763718, 0.17239193618297577, -0.48898327350616455, 0.25106459856033325, -0.0028997145127505064, 0.4848959147930145, 1.2965149879455566, 0.04097922891378403, 0.031247789040207863, -0.04186474531888962, -0.3806582987308502, 0.6449633240699768, -0.5129225254058838, 0.07988086342811584, -0.7841445803642273, 0.576495349407196, -0.10721044987440109, 0.7424072623252869, 0.4988112151622772, 0.1651906818151474, -0.030872708186507225, 0.15039901435375214, 0.7852136492729187, -0.6481000185012817, -0.013741171918809414, 0.020971497520804405, -0.3559021055698395, -1.450877070426941, 0.8913516998291016, 0.257320761680603, -0.9356951713562012, -0.9700577259063721, 0.1572784185409546, -0.15521015226840973, -1.3798669576644897, 0.1610727310180664, 0.544008195400238, -0.010000046342611313, -1.0360963344573975, -0.009980380535125732, -0.8222025036811829, -1.7255090475082397, -0.593528151512146, -0.12491931766271591, -0.10708668828010559, 0.17174272239208221, -0.4597128629684448, -0.1609790027141571, -0.4951843023300171, -0.20127955079078674, -0.13460877537727356, -0.42826977372169495, -0.4841327369213104, -0.028459414839744568, -0.5886560082435608, 0.023191148415207863, -0.23277263343334198, -0.14085787534713745, -0.7884361147880554, -1.5438088178634644, -0.5207849144935608, -0.3903254568576813, -0.4228534400463104, 0.7096070051193237, 0.12447875738143921, -0.7112613320350647, 0.1333419233560562, 0.20718075335025787, 0.4962354898452759, -0.9841211438179016, -0.2634792625904083, 0.17065830528736115, 0.7866501808166504, 0.06309740245342255, 0.12273894995450974, -0.14465740323066711, -0.7227001190185547, 0.011782558634877205, -0.053996823728084564, -0.6338078379631042, 0.8854501843452454, -0.4801943302154541, -0.02125352807343006, -0.12037098407745361, -0.38501930236816406, 0.03259827941656113, -0.4067801833152771, 0.5354493260383606, 0.3583783507347107, -0.2764102518558502, 0.7897527813911438, -0.0687127485871315, 0.4496728777885437, -0.3182666003704071, -0.2408880889415741, 0.06196848675608635, -0.2314649373292923, -0.9728782773017883, -1.0873475074768066, -0.24196931719779968, 0.19821088016033173, -0.09878475964069366, -0.6943461298942566, 0.458830863237381, 0.5266923308372498, -0.028543436899781227, -0.06536441296339035, 0.15788203477859497, -0.058953288942575455, -0.7652241587638855, -0.4848601520061493, -0.7657389640808105, -0.4821276068687439, -0.23219968378543854, -0.10360616445541382, 0.7615966200828552, 0.42355501651763916, -0.21039092540740967, 0.2573736906051636, -0.36611247062683105, -0.30142951011657715, 0.019003821536898613, 0.19665607810020447, -0.6040107607841492, -0.6279991269111633, -1.1230676174163818, -0.37620651721954346, 0.18522320687770844, 0.14868804812431335, -0.3140780031681061, 0.16029518842697144, -0.5498313903808594, -0.2960388660430908, -0.17682096362113953, -0.5859895944595337, 0.4244769215583801, -0.44504839181900024, -0.1398967057466507, 0.056797467172145844, 0.034266214817762375, 0.45162612199783325, 1.1753792762756348, 0.04792771115899086, 0.4432879686355591, -0.4462476074695587, -0.012647227384150028, -1.228845238685608, -0.16509060561656952, -0.21231316030025482, 0.35227644443511963, -0.2604868412017822, -0.03314109146595001, 0.9331809878349304, -0.3742002546787262, 0.06624627858400345, 0.6158022284507751, 0.17234212160110474, -0.3381660282611847, -0.03217262029647827, 0.33860841393470764, -0.6556374430656433, -0.2847301661968231, 0.023237034678459167, -0.2712334990501404, -0.034044984728097916, -0.03853331133723259, 0.20734353363513947, -0.2620193362236023, -0.016731441020965576, 0.13392026722431183, -0.5174885392189026, -0.10159524530172348, -0.2162129282951355, -0.14911989867687225, -0.1827915906906128, -0.6490796208381653, -0.8574941754341125, -0.21845953166484833, 0.09922952204942703, -2.6460280418395996, 0.05062936618924141, 0.25299525260925293, 0.0059014116413891315, -0.7522748112678528, -0.05102963745594025, -0.3335503339767456, 0.4228971302509308, 0.24497075378894806, 0.0184852983802557, 0.07825890928506851, -0.016153816133737564, 0.4630659222602844, 0.21138224005699158, -0.4118044078350067, -0.21597765386104584, 0.3333849310874939, -0.13734325766563416, -0.8042377233505249, 0.11234915256500244, -0.18821319937705994, -0.5638116002082825, -0.10728215426206589, -0.3300647437572479, 0.5186551213264465, -0.027308708056807518, 0.005862063262611628, 0.22507847845554352, -0.043817900121212006, -0.15256112813949585, -0.24085788428783417, 0.2650054693222046, -0.472643107175827, 0.08238085359334946, -0.08152899146080017, -0.2617613971233368, 0.5633113980293274, -0.09237189590930939, -0.04767509549856186, 0.28899946808815, -0.0671592503786087, -0.6718873977661133, 0.09833847731351852, 0.07491331547498703, -0.12991414964199066, -0.4825811982154846, 0.5317080616950989, -0.044246774166822433, 0.5306739211082458, -0.06610710173845291, -0.19284963607788086, 0.21410980820655823, -0.27745309472084045, -0.3360752463340759, -0.01108959037810564, 0.6121296286582947, -0.12340027838945389, 0.08450086414813995, 0.9970349669456482, -0.11419178545475006, 0.2218913435935974, 0.09883435815572739, -0.35952872037887573, 0.41346004605293274, 0.0790536031126976, -0.2737027704715729, 0.19677069783210754, 0.1666620671749115, 0.04714100435376167, -0.1316855251789093, 0.13186568021774292, 0.17837870121002197, 0.4815148115158081, 0.15492479503154755, -0.09333240240812302, 0.15440084040164948, 0.19760383665561676, -0.12181596457958221, 0.0030807130970060825, 0.06766515225172043, 0.5460584759712219, 0.11384467780590057, 0.019984189420938492, 0.14950083196163177, -0.05042160674929619, -0.15671466290950775, 0.07661617547273636, 0.2871635854244232, -0.1138015016913414, 0.21886992454528809, 0.5935069918632507, -0.46291419863700867, -0.049490150064229965, 0.44067129492759705, 0.7215939164161682, 0.4534866511821747, 0.6301921010017395, -0.3764175474643707, -0.011266026645898819, -0.21909354627132416, -0.4785308539867401, 0.2510315775871277, -0.08725491911172867, 0.178138867020607, 1.0254738330841064, 0.24453870952129364, -0.14102913439273834, 0.07368554919958115, 0.1581553965806961, 0.4581071734428406, 0.0860980749130249, 0.15534456074237823, -0.18499837815761566, -0.826604962348938, 0.24278861284255981, -0.43140897154808044, -0.4169585704803467, 0.21246114373207092, 0.25953617691993713, -0.08921419084072113, 0.4421240985393524, -0.538969099521637, 0.30357280373573303, -0.26516345143318176, -0.09979575872421265, -0.3968151807785034, -0.37806665897369385, -0.05470861867070198, -1.7240400314331055, 0.4457005560398102, 0.22776782512664795, 0.289987176656723, -0.574017345905304, 0.1534883677959442, 0.2273208498954773, 0.42426449060440063, 0.3453523516654968, -0.11514058709144592, -0.13882797956466675, -0.09786052256822586, 0.9736530780792236, -0.08863614499568939, -0.7214040160179138, -0.45874741673469543, 0.6992413997650146, 0.2689516246318817, 0.6775219440460205, 0.3528384268283844, 0.16177409887313843, 0.40059009194374084, 0.9200038313865662, -0.23865273594856262, 0.2576436400413513, 0.3733700215816498, -0.05996180698275566, 0.6739466786384583, 0.20483340322971344, 0.19006705284118652, 0.010525031015276909, 0.07374919205904007, -0.10351071506738663, 0.17252779006958008, 0.05771004408597946, 0.0682591050863266, 0.3881157338619232, 0.17093423008918762, -0.24264472723007202, 0.18060997128486633, 0.19062477350234985, -0.9381043910980225, -0.22563275694847107, 0.0024383417330682278, 0.3021426498889923, 0.14574360847473145, 0.16029629111289978, 0.04534805193543434, 0.056364189833402634, -0.14465808868408203, 0.04251653701066971, 0.13890738785266876, -0.4980681240558624, 0.9113378524780273, -0.30383414030075073, 0.8173978924751282, -0.018764877691864967, 0.45592987537384033, 0.6082690358161926, -0.0019766949117183685, -0.08205841481685638, 0.32497385144233704, 0.15685294568538666, -0.03545684739947319, 0.4288482964038849, -0.1477617770433426, 0.19888225197792053, -0.14218975603580475, 0.23749962449073792, -0.7047709822654724, 0.514908492565155, 0.4365432858467102, 0.9555804133415222, 0.04712771624326706, -0.4403397738933563, 0.17649471759796143, 0.09996863454580307, 0.09173567593097687, 0.3055415153503418, 0.38827258348464966, 0.45891323685646057, 0.1241626888513565, 0.04454191029071808, 0.7247034907341003, -0.22422383725643158, -0.13829699158668518, -0.31975364685058594, 0.09132897108793259, 0.7765171527862549, 1.0632803440093994, 0.16688817739486694, -0.7023181319236755, -0.01097362395375967, 0.13850629329681396, 0.34476643800735474, 0.2673889398574829, -0.22092214226722717, -0.40927159786224365, 0.3637799918651581, 0.2146598994731903, -0.7131558060646057], "haggle/value/bias:0": [0.2124554067850113], "haggle/context/bias:0": [1.1156398057937622, -0.12846750020980835, 0.34973907470703125, -0.5199432969093323, -0.02947828732430935, -0.20445947349071503, -0.545760989189148, 0.20410142838954926, -0.03731276094913483, -0.17327067255973816, 0.08653531223535538, -0.2932007908821106, -0.5134596824645996, 0.10603854805231094, -0.042128611356019974, 0.6105232834815979, 0.01216530054807663, -0.1362864077091217, -0.48884883522987366, 0.05296187102794647, -0.03007723204791546, -0.17490346729755402, -0.04109074920415878, -0.13647602498531342, 0.4167032837867737, -0.017967574298381805, -0.020204057916998863, -1.3572025299072266, -0.16229327023029327, -0.04413547366857529, 0.25506076216697693, -0.12597723305225372, 0.33937716484069824, -0.05899347364902496, -0.021083440631628036, -0.13778823614120483, -0.05764174088835716, -0.108281210064888, -0.08711971342563629, -0.0105862095952034, -0.07802297919988632, -0.06497933715581894, -0.03899219259619713, -0.08770550787448883, 0.8834468722343445, -0.3648521304130554, 0.04626009985804558, -0.1606220304965973, -0.06279458850622177, -0.09502352029085159, 0.22367338836193085, 0.15195217728614807, 0.27132970094680786, -0.01190420426428318, 0.1463107019662857, -0.2885201871395111, -0.10417963564395905, 0.19533050060272217, -0.005197932478040457, 0.0, -0.06444983184337616, -0.06939078867435455, 0.0, -0.193321093916893, -0.05927441269159317, 0.0, -0.20923669636249542, -0.024571819230914116, -0.1185053139925003, 0.18778397142887115, -0.18710948526859283, -0.08600813150405884, -0.12242733687162399, 0.35600656270980835, -0.31693795323371887, 0.21892490983009338, -0.11557768285274506, 0.3239614963531494, 0.0, 0.0, 0.11667197942733765, -0.008596246130764484, 0.25415465235710144, -0.10387846827507019, -0.013640380464494228, -0.047758061438798904, -0.8128311038017273, -0.19331172108650208, -0.06101667881011963, -0.09399481117725372, -0.06615141034126282, -0.011884660460054874, -0.05221663787961006, -0.01065859105437994, 0.0, 0.0, 0.25669416785240173, -0.07298065721988678, -0.3711877763271332, 0.5831552743911743, -0.18365974724292755, 1.0592584609985352, -0.28789010643959045, 0.0, -0.03166307508945465, -0.07787268608808517, 0.15915672481060028, -0.3650939166545868, -0.17502537369728088, -0.05395595729351044, -0.04321903735399246, 0.3864732086658478, -0.14206291735172272, 0.1548856645822525, 0.31266558170318604, -0.31045418977737427, -0.3532252311706543, 0.7292583584785461, 1.198194980621338, -0.23634062707424164, -0.31777310371398926, 0.20749710500240326, 0.19848985970020294, 0.18449048697948456, 0.23936887085437775, -0.27391403913497925, 0.06652156263589859, -0.016269659623503685, 0.09607814252376556, -0.0025358805432915688, 0.4972079396247864, -0.22049368917942047, -0.44446948170661926, -0.3342374265193939, 0.0, -0.2795850932598114, 0.33295193314552307, 0.2766302824020386, 0.0, -0.05743052810430527, 0.5421330332756042, 1.0544146299362183, -0.5534632205963135, -0.5775989294052124, 0.141606867313385, 0.1583622545003891, -0.09866633266210556, -0.14107388257980347, -0.28091081976890564, 0.0, -0.12973345816135406, 0.2813344895839691, -0.3714461922645569, -0.016030630096793175, -0.46977660059928894, -0.5584787130355835, 0.0, -0.07988297194242477, -0.5601720809936523, -0.3569634258747101, 0.4286189377307892, -0.567034125328064, -0.3650990128517151, -0.1592528074979782, -0.3941984176635742, 0.012094317935407162, 0.007591838948428631, 0.0, -0.24491257965564728, 0.45224857330322266, -0.05286690592765808, -0.16115520894527435, 0.6722647547721863, -0.7662785053253174, -0.2755206823348999, -0.20831981301307678, 0.4957185387611389, 0.0, -0.3487580120563507, -0.13218943774700165, -0.30774641036987305, 0.07642180472612381, 0.5450115203857422, -0.5228332281112671, 0.8745743632316589, 0.1978732794523239, 0.7015125155448914, -0.04678072780370712, -0.5590142011642456, 0.1530093252658844, -0.01735936664044857, -0.1573144495487213, -0.6240103244781494, -0.33480507135391235, -0.05515926331281662, -0.5180107951164246, -0.20764343440532684, -0.475709468126297, 0.47469431161880493, -0.3703066408634186, -0.04938729107379913, 0.35467931628227234, -0.4041438400745392, -0.01626640185713768, 0.7795305252075195, -0.21128696203231812, -0.3862265646457672, 0.7719267010688782, -0.42332640290260315, -0.05360978841781616, -0.16835850477218628, -0.1742149442434311, 0.4010182023048401, -0.4029586911201477, -0.37301090359687805, -0.589323103427887, -0.5028683543205261, -0.6007477045059204, 0.17454534769058228, 0.24071361124515533, -0.12334705889225006, -0.08054881542921066, -0.6410462260246277, 0.4608859419822693, 0.7852514386177063, -0.5774523615837097, -0.056050822138786316, -0.39406755566596985, -0.24455749988555908, 0.0, 0.0, -0.006208453327417374, 0.38265538215637207, -0.02557588741183281, -0.13241493701934814, -0.2043929547071457, -0.0392116904258728, 0.1904788613319397, -0.3564659357070923, -0.31614384055137634, -0.5303784608840942, 0.3627653121948242, 0.3495560884475708, -0.22392255067825317, 0.06463022530078888, -0.03177771344780922, -0.26400086283683777, 0.22583094239234924, -0.23387391865253448, -0.24279393255710602, 0.3486619293689728, -0.2811734676361084, -0.5248867869377136, -0.05451701581478119, 0.6799490451812744, -0.6550760865211487], "haggle/embedding:0": [[0.015467070043087006, 0.2308463603258133, 0.05928892269730568, -0.698633074760437, 2.102234363555908, -1.1145821809768677, -1.5756398439407349, -0.565069317817688, 2.7403361797332764, -0.5378833413124084, 0.35784193873405457, -0.17653144896030426, 0.12378469854593277, 0.3100001811981201, -0.3895898461341858, 0.2887100279331207, -1.787440299987793, 0.8187893629074097, -0.19645804166793823, 0.47857874631881714, 0.9324520826339722, 0.9774847626686096, -0.1762107014656067, 0.6309360861778259, 0.6750816106796265, -0.23373761773109436, -0.8099969625473022, -0.2057117074728012, 0.5016929507255554, -0.621014416217804, 0.3052447438240051, 0.5490049719810486, 0.09111758321523666, -1.1782541275024414, -0.4563870131969452, -0.4407985806465149, 0.8815768957138062, 0.6116093993186951, 1.1599912643432617, 0.138663649559021, 0.8439645767211914, 0.9727104306221008, 0.366706520318985, 0.7201672196388245, 0.5652808547019958, -0.6018317937850952, -0.7275798916816711, 0.2836349308490753, 0.8430861234664917, -0.6793887615203857, 0.6057716012001038, 1.2307032346725464, -2.5110995769500732, -0.08926521241664886, -0.5666431188583374, 0.4844098389148712, 0.34394803643226624, -0.08723036199808121, -0.31711962819099426, -1.4857544898986816, -1.0436692237854004, 0.43134835362434387, -1.5432672500610352, 0.8649595975875854, 3.0143089294433594, 0.5721961855888367, 0.17745278775691986, 0.31859034299850464, 1.3683435916900635, -1.020810604095459, 0.649812638759613, 0.1979319304227829, -1.532414197921753, -2.026721715927124, -1.5023273229599, 0.26648297905921936, 1.2935982942581177, 0.5281975865364075, -0.07508456707000732, -0.13016277551651, 1.8646891117095947, 1.4656072854995728, 1.4232170581817627, 0.2550109326839447, 1.973549246788025, -1.0969852209091187, -0.19853968918323517, -0.3772249221801758, 1.661828637123108, 1.8191660642623901, -0.25470542907714844, 1.2160285711288452, 0.6424070000648499, 0.8370395302772522, -0.23331376910209656, 0.20327138900756836, 0.38812190294265747, -0.977921187877655, 0.04299980029463768, -0.633861780166626, -0.11617615073919296, 0.19167456030845642, -0.2885613739490509, -0.005636412650346756, 0.8620594143867493, 0.2705812454223633, -1.149897813796997, -0.6859952807426453, 0.9251726269721985, 1.4583004713058472, -1.0471599102020264, 1.6728789806365967, -0.8230257034301758, 1.2935751676559448, 0.6238051056861877, 0.7056772112846375, -0.20972763001918793, 0.6941559314727783, 0.3321022093296051, -1.259231448173523, -0.5205835103988647, 0.6206033229827881, -0.41418787837028503, 0.9261642098426819, 0.7166231870651245, -0.03580126166343689, 0.08474844694137573, -0.5419094562530518], [-0.036609772592782974, 1.09775972366333, -0.93854159116745, 0.3916756808757782, -0.3096347451210022, 0.08588092029094696, 0.852634072303772, 0.2275743931531906, -0.04735059291124344, -0.079041488468647, -0.10070444643497467, -0.14724339544773102, -0.352967768907547, 0.045898523181676865, -0.1375064253807068, -0.08313073217868805, 0.16494981944561005, 0.835464358329773, 0.1819157749414444, 0.3775719702243805, 0.26015424728393555, 0.1616007387638092, 0.11456867307424545, -0.10812269151210785, 0.19536353647708893, 0.0810898169875145, 0.10121753066778183, 0.02858525700867176, -1.218751072883606, -0.3870963454246521, 0.040993109345436096, 0.029394863173365593, -0.29825928807258606, -0.20335602760314941, 0.2886875867843628, 0.23003140091896057, 0.10874450951814651, -0.14602063596248627, 0.255872517824173, 0.0077182212844491005, -0.6458179950714111, 1.2880992889404297, 0.438396692276001, -0.21690568327903748, -0.5879294872283936, 0.0062073711305856705, -0.12274666130542755, -0.5579737424850464, -0.36351385712623596, -0.10911107808351517, -0.11488424986600876, -0.29404932260513306, 0.36694350838661194, -0.13187232613563538, 0.2699470818042755, -0.3119473159313202, -0.07877764850854874, -0.15180562436580658, -0.018889760598540306, 0.007154413498938084, 0.009376094676554203, 0.06648251414299011, 0.30228424072265625, -0.10166312009096146, -0.5083274245262146, 0.5716139674186707, -0.3624335527420044, 0.009222830645740032, 0.019231148064136505, -0.4018692374229431, 0.19756042957305908, 0.2823817729949951, -0.30214929580688477, -0.9682328701019287, -0.36323028802871704, -0.4980117678642273, -0.12408995628356934, -0.2612842321395874, -0.5574696063995361, -0.07064676284790039, 0.035936832427978516, 0.42933452129364014, 0.1073504239320755, 0.3981113135814667, -0.3229100704193115, -0.6234353184700012, -0.14151303470134735, -0.8134446740150452, -0.10820791125297546, 0.6565000414848328, -0.07245322316884995, -0.4123481810092926, 0.18335840106010437, 0.04024848714470863, -0.2114393562078476, -0.43263131380081177, -0.018881194293498993, 0.0037543680518865585, -0.4413759708404541, -0.16800181567668915, -0.03047257661819458, 0.20610783994197845, 0.7169514894485474, 0.2621156573295593, -0.008760353550314903, 0.18234553933143616, -0.1717098206281662, 0.7363162636756897, -0.2649654150009155, -0.15457755327224731, -0.0025604492984712124, -0.4847809970378876, -0.3336048126220703, -0.24458618462085724, 0.616570770740509, 0.41899967193603516, -0.583238422870636, -0.0243329219520092, 0.49352437257766724, 0.7969853281974792, 0.3126773536205292, -0.0550498403608799, 0.019225871190428734, 0.025633757933974266, -0.136164128780365, -0.21473416686058044, 0.9766154289245605, 0.7013399600982666], [-0.46259987354278564, -0.4710491895675659, -0.16493479907512665, 0.29683390259742737, -0.07084384560585022, 0.6092249751091003, 0.01069238968193531, -1.1931369304656982, -0.45295488834381104, -0.3383748531341553, 0.15218660235404968, 0.18511143326759338, -0.19176119565963745, 0.3164418637752533, 0.5331626534461975, -0.2528672516345978, 2.2907543182373047, 0.3981233239173889, -0.49904581904411316, 0.3147708475589752, -0.09953462332487106, 0.03190317377448082, -1.011281132698059, 0.1793428659439087, -0.18020378053188324, 0.4150504469871521, 0.26861387491226196, 0.012048378586769104, -0.745054304599762, -0.16741350293159485, -0.9485516548156738, 0.08066299557685852, -0.27120375633239746, 0.5620328187942505, -0.7150741815567017, -0.045322783291339874, -0.1931183636188507, 0.29777172207832336, -0.5199954509735107, 0.20552395284175873, 1.1774723529815674, 0.4214736819267273, -0.04320559278130531, 0.2582801282405853, -0.3409976363182068, -0.05472984164953232, 0.24760732054710388, -0.12283192574977875, 0.22928999364376068, 0.1750260442495346, -0.25931766629219055, -0.5492408871650696, 0.15193377435207367, 0.2626022696495056, 0.12169568985700607, -0.5338134765625, 0.2533133625984192, 0.15106716752052307, 0.21123188734054565, -0.31032800674438477, -0.7105838060379028, -0.11117960512638092, -0.43466296792030334, 0.370174378156662, -0.2940821945667267, 0.16151390969753265, -0.2877068817615509, 0.5411637425422668, -0.09930586069822311, 0.345909982919693, -0.3491148352622986, 0.3245832622051239, -0.3116667866706848, -0.30408722162246704, 0.1592664271593094, 0.5730282664299011, -0.3350442051887512, -0.12849439680576324, -0.3748302459716797, 0.31889808177948, 1.6954816579818726, -0.24057501554489136, -0.48220956325531006, 0.01399546954780817, -0.2760891616344452, -0.03268168494105339, -0.049024421721696854, -0.12323130667209625, 0.09562940895557404, 0.1779617965221405, 0.04902774840593338, 0.2585029900074005, -0.18560928106307983, 0.5070247054100037, 0.12861159443855286, 0.8782440423965454, -0.019054865464568138, -0.7198326587677002, 1.0883949995040894, -1.2129651308059692, 1.2901188135147095, -0.35462334752082825, 0.4824695289134979, 0.2320413738489151, -0.158997043967247, 0.5936762094497681, 0.26572227478027344, -0.13483043015003204, -0.1294770985841751, -0.03186040371656418, -0.6361044049263, -0.0918731540441513, -0.01018517930060625, -0.01097425352782011, 0.21671809256076813, 0.4139972925186157, -0.625474750995636, -0.2079930156469345, -0.08604511618614197, -0.1118035614490509, -0.40902480483055115, -0.26971113681793213, 0.15381112694740295, -0.3479469120502472, 0.4796088933944702, -0.6999264359474182, 0.3769533038139343, 0.5753833055496216], [0.34528976678848267, -0.6805558800697327, 0.4783727526664734, 0.33784401416778564, -0.08613788336515427, 0.503761351108551, -0.3786109387874603, -0.936611533164978, -1.0512036085128784, 0.6438726782798767, -0.7803944945335388, 0.4329444169998169, -0.02235739678144455, 1.0605571269989014, -1.0550692081451416, -0.4306190013885498, 2.101308822631836, -0.5429487824440002, 1.009490728378296, 0.3383045196533203, -0.2898378074169159, 0.476897656917572, 0.733205258846283, 0.5727719664573669, 0.8775721788406372, 0.6343160271644592, 0.7506623268127441, 0.08955126255750656, 0.3457772731781006, -0.6860917210578918, 2.7395212650299072, -0.48900607228279114, -0.5279332399368286, 0.4999895393848419, -0.5396879315376282, -0.23640404641628265, -0.9354398846626282, 1.1884591579437256, -0.8455344438552856, -0.004084817133843899, -0.5269784331321716, -0.09033629298210144, 0.8624973893165588, -1.2974475622177124, -0.1327359527349472, 0.14213819801807404, -0.14054971933364868, 0.1937938779592514, 0.5530522465705872, 0.8127704858779907, -0.5647120475769043, -0.9176486134529114, -1.1545321941375732, 0.24788334965705872, 0.34831053018569946, 0.1288609355688095, 0.8331643342971802, 0.16307979822158813, 0.5218703746795654, -0.4531669020652771, -0.9940179586410522, -0.3754548132419586, 0.7574257254600525, 0.6592971682548523, 0.36252960562705994, 0.19910885393619537, 0.6701689958572388, -0.20307917892932892, -0.078897625207901, -0.01115207839757204, -0.006043365225195885, 0.315733939409256, -0.7331103086471558, 0.6923484206199646, -0.07700574398040771, 0.3799707889556885, 0.4211907982826233, 0.017369072884321213, 0.12739799916744232, 0.3365279734134674, 0.49272358417510986, 0.8557030558586121, -0.5094626545906067, -0.18640606105327606, -1.1763050556182861, -0.7450258135795593, -0.5584539175033569, -0.10907965898513794, -0.03755499795079231, 0.1518508344888687, 0.18831579387187958, -0.3611658215522766, -0.05352286994457245, 0.4192121624946594, -0.6899497509002686, -1.1030977964401245, -0.03151996061205864, -0.011623021215200424, 0.4078766703605652, 0.5279526710510254, 1.3304829597473145, 0.1846330463886261, 0.9592440724372864, -0.12537848949432373, -0.3559689521789551, 0.8489912748336792, 0.1068468689918518, 0.15963046252727509, 0.19473998248577118, -0.16632559895515442, -0.5389636158943176, 0.6288912296295166, -0.4492536783218384, -0.41293540596961975, -0.18603390455245972, 0.06790787726640701, -0.150792196393013, -0.3810054659843445, -0.1545875072479248, -0.014334493316709995, -0.11842549592256546, 0.050053637474775314, 0.5630765557289124, 0.740041196346283, -0.40569087862968445, -0.5140818357467651, -0.7169091701507568, 0.27288272976875305], [0.18651747703552246, 0.7573784589767456, -0.7762451171875, -0.9913631677627563, 1.0294735431671143, 1.0212222337722778, 0.03596622124314308, -0.7035767436027527, 0.9509046077728271, -0.23498930037021637, -0.03284694626927376, -0.2323119193315506, 0.4797101318836212, 0.053234513849020004, -0.1651977002620697, -1.4340204000473022, 0.5689913630485535, -0.9932571053504944, -0.19945277273654938, -0.07027275860309601, 0.32447612285614014, -0.7945661544799805, -0.22080844640731812, -1.1140402555465698, 0.2649111747741699, 0.3308446705341339, -0.169621080160141, -0.18511244654655457, 0.5911128520965576, -0.12596574425697327, 0.19217342138290405, 0.42526641488075256, -1.3094866275787354, 0.7830834984779358, -0.43721556663513184, 0.9586542248725891, 0.5087058544158936, 0.3143802285194397, 0.3927662968635559, 0.09098430722951889, -0.5317901968955994, -0.01995379664003849, 2.1962478160858154, -0.4680715501308441, -0.9848016500473022, 1.2364637851715088, 0.5050818920135498, 0.03441139683127403, 0.6384416222572327, 0.24592509865760803, 0.1983899027109146, -0.7151244878768921, 0.017466088756918907, 0.8212187886238098, 1.036272406578064, -0.39855843782424927, -0.18925882875919342, 0.7694895267486572, -0.3285751938819885, -0.352325975894928, 0.3371724784374237, 0.9628823399543762, 0.3295588195323944, -0.10080090910196304, -0.7979744672775269, 0.31211841106414795, -0.3441295027732849, -0.5652952194213867, -0.11498662829399109, 0.16442780196666718, -0.6978318095207214, -0.37641099095344543, -0.8840151429176331, -0.24648773670196533, 0.002620097016915679, -0.8814865350723267, 0.8671044111251831, 0.9945297837257385, 0.8085283041000366, 0.4092889726161957, -0.031762003898620605, -0.21136103570461273, -0.010488821193575859, 0.683114230632782, 0.25094741582870483, -0.4019981026649475, 1.8415312767028809, -0.2595181167125702, 1.140569806098938, -0.7360135912895203, -0.2022348940372467, -0.40881848335266113, -0.7767297625541687, 0.8095319271087646, -0.20358769595623016, -0.8341357707977295, -0.24158339202404022, -0.4699506163597107, 0.04496262967586517, -0.2393389791250229, -0.37216806411743164, -0.4236190617084503, -0.26347067952156067, 0.5423581004142761, -0.41401228308677673, 0.6746100187301636, 0.11791303753852844, 0.3432401716709137, 0.6481058597564697, 0.0633934810757637, 1.0819708108901978, 0.35169902443885803, 0.02518508769571781, 1.132326364517212, -0.18038341403007507, -1.2561954259872437, -0.3255622684955597, -0.7019805312156677, 0.38767722249031067, -0.7826223969459534, 0.2305458039045334, 0.11504200845956802, 0.5347625613212585, -0.21825413405895233, -0.2090788334608078, 0.218802809715271, -1.3402353525161743, 0.3749273717403412], [-1.1396793127059937, -0.548999011516571, 0.3203379809856415, -0.96543949842453, 0.9286618232727051, 0.3387211263179779, -0.05057140439748764, -2.1705198287963867, -1.377988576889038, 0.7695132493972778, 0.203037291765213, 0.7610692381858826, 0.10901439934968948, 0.616623044013977, -0.49703171849250793, 2.1470694541931152, 0.421963632106781, 1.7551298141479492, 0.5908695459365845, 0.2930825650691986, 0.40287554264068604, -1.5620348453521729, 0.0671575665473938, -0.045690275728702545, -0.23446106910705566, 1.9789578914642334, 0.18332083523273468, 1.2010176181793213, 0.6857763528823853, -0.10964841395616531, -1.285321831703186, -0.5738246440887451, -0.2256498485803604, 0.8782374858856201, -3.094104290008545, -0.01725967414677143, 0.11473874002695084, 0.03645695000886917, -0.4349250793457031, 0.6049429774284363, -1.224737286567688, 1.7660129070281982, -0.5452382564544678, -0.5126046538352966, -0.2453307807445526, 0.05640595406293869, 0.10027953237295151, 1.2161829471588135, -2.4881978034973145, -0.9149294495582581, -0.9548383951187134, 0.10337218642234802, -0.8138867020606995, -0.26097992062568665, -0.3088584840297699, -0.6436973810195923, -1.3227826356887817, -0.6672266125679016, 0.3482946455478668, 0.8459597826004028, -0.38241127133369446, -1.531294584274292, -0.07910336554050446, -0.5440908670425415, 0.7618920207023621, 1.1917837858200073, -0.2719886600971222, 0.37859073281288147, 1.278198003768921, -0.23683863878250122, -1.2410541772842407, -1.2628761529922485, -0.14856041967868805, 1.054443359375, 1.5963095426559448, 3.4011335372924805, 0.46769991517066956, 0.5332268476486206, 0.8746861219406128, -0.5880336761474609, 0.43029889464378357, 0.7187159657478333, 0.09088851511478424, 1.6742799282073975, -0.7095010876655579, -2.3001513481140137, 1.5631844997406006, -0.4907824397087097, 1.3212532997131348, 0.5959143042564392, 0.6920680403709412, -1.1181559562683105, -0.2723219692707062, 2.0586719512939453, 0.08972654491662979, -1.3762091398239136, -1.8287768363952637, 0.03424716740846634, 1.7197952270507812, 1.734190583229065, -1.114394187927246, 2.425774335861206, -0.3533039391040802, 1.4898173809051514, -1.309422492980957, -1.393689513206482, -1.0029330253601074, -1.4753769636154175, -1.0035375356674194, 0.42644351720809937, -0.09173280745744705, -0.6598383188247681, 1.0151008367538452, 1.2734928131103516, 0.5185451507568359, -1.5973360538482666, 0.1506362408399582, 0.2368415743112564, -0.35015058517456055, -0.4316520392894745, -0.31636056303977966, -0.2934034466743469, -1.960587978363037, 2.5551464557647705, -1.4498746395111084, -0.4145665168762207, -0.9757035374641418, 0.3754809498786926], [1.0860439538955688, 0.006708734668791294, 1.0190261602401733, 1.944516897201538, 0.35909149050712585, -0.45265790820121765, 0.9355528354644775, 1.1748193502426147, 1.0297396183013916, -0.3959522247314453, -1.7643778846831992e-06, -1.162354588508606, 0.7191910743713379, 0.37799081206321716, 0.8016113042831421, 0.5089406371116638, 0.6790758967399597, -1.487342357635498, -0.40370485186576843, 0.2862892150878906, 1.0753687620162964, -0.03793143481016159, -0.16949376463890076, -0.41958603262901306, 0.3116585910320282, -0.20722608268260956, 0.0510232150554657, -2.0442473888397217, 0.5948001146316528, 2.7578749656677246, 0.1076362133026123, 1.2023844718933105, 1.413597583770752, -0.782346785068512, -0.14886680245399475, 0.7912963032722473, 1.2186312675476074, -0.9179362058639526, 0.7681986093521118, -0.13544650375843048, -0.08618399500846863, -0.9487006664276123, 1.92611825466156, -1.601635217666626, -0.20350828766822815, -0.004113028757274151, 1.5852187871932983, 1.5999698638916016, 0.7942011952400208, -1.9032964706420898, 0.6011689305305481, -0.12222836166620255, 0.4263906180858612, 0.5360093712806702, -1.103935956954956, 0.978501558303833, 1.0851625204086304, -0.6498845815658569, -0.8002303242683411, -1.50401771068573, -1.6154639720916748, 0.0421842522919178, 1.6949138641357422, 0.049099549651145935, 0.10307729989290237, -1.7710788249969482, -0.19448547065258026, -1.3069469928741455, -1.0235729217529297, -0.6697283983230591, -0.16426317393779755, 0.18509908020496368, -1.4500211477279663, 1.4079644680023193, -0.49965450167655945, -0.5994985699653625, -1.2434618473052979, 0.6128022074699402, -0.6753635406494141, -0.4694124460220337, 0.32204535603523254, -1.9992177486419678, -0.8243918418884277, -2.683668375015259, -0.7197023630142212, -0.7314547300338745, -2.4703283309936523, -0.2926729917526245, -0.029086418449878693, -1.6903572082519531, -1.048704981803894, 0.9589448571205139, -1.3320142030715942, -1.2896157503128052, -0.6786537766456604, -0.14346086978912354, -0.537162184715271, -1.565557599067688, 0.21640224754810333, -1.4072555303573608, -1.9375826120376587, 1.635925054550171, -0.16063663363456726, 0.22616569697856903, -1.2401562929153442, -0.15970313549041748, 1.104376196861267, -0.31216058135032654, 0.7838707566261292, -0.08618799597024918, 0.8778785467147827, 0.20203091204166412, 0.9445410370826721, -0.029858263209462166, -1.7807519435882568, 0.31604284048080444, 0.6389077305793762, 0.1891511082649231, 0.3846193850040436, -0.9300053119659424, 0.1060444563627243, 0.2508828341960907, -1.0484448671340942, 0.17223234474658966, 0.030900172889232635, -0.4810144901275635, -2.2183680534362793, 0.9378364086151123], [0.13976438343524933, -1.2506345510482788, 0.19976480305194855, -0.5412790775299072, -0.07373853027820587, -1.3072713613510132, 1.0578852891921997, 0.6004207134246826, -0.7025530338287354, -0.5890238881111145, -1.1668258905410767, -0.03138493746519089, 1.0052417516708374, 1.9825820922851562, 0.6594369411468506, 0.6074352860450745, 0.8976039886474609, -1.360696792602539, 2.3934173583984375, -0.551023542881012, -0.7163965106010437, 0.005067795515060425, -0.38433295488357544, -1.6565192937850952, 0.6770559549331665, -1.069411277770996, -0.8418053984642029, -0.013915129005908966, 1.3400511741638184, 1.2721201181411743, 0.9991859197616577, -0.1595798283815384, -0.3970019519329071, -0.036313921213150024, 0.1968010514974594, -1.2927099466323853, 0.4868971109390259, 0.725641667842865, 0.050537291914224625, -1.5158231258392334, -1.2553837299346924, 0.7646978497505188, 0.8622053861618042, -1.4866244792938232, -1.1443086862564087, -1.3860615491867065, 1.6883158683776855, 0.28561413288116455, -1.364607810974121, -0.04982961341738701, 0.3246103525161743, -0.6200054883956909, 0.6331467628479004, 0.16856473684310913, 0.0775388851761818, 0.550125777721405, -0.21023134887218475, 0.47427546977996826, 0.343681275844574, 0.4953484833240509, 0.10668763518333435, 0.4885063171386719, -1.6971060037612915, -0.9961690306663513, 1.864357352256775, 0.9774422645568848, 0.39909693598747253, -0.18571221828460693, -0.15685804188251495, -0.5307888388633728, -1.0751268863677979, 0.6040453314781189, 0.5712776184082031, 0.32502397894859314, -0.5157169699668884, -0.6326276063919067, -0.09227671474218369, -0.7552886009216309, -0.2438405603170395, -0.6327426433563232, 1.5166382789611816, -1.0661077499389648, 1.611351490020752, -0.18295951187610626, -0.06672374904155731, -1.9860126972198486, -0.7023653388023376, 1.7406632900238037, -1.085559606552124, -0.9276118278503418, 1.353149175643921, 0.22662387788295746, -0.19870662689208984, -0.47940629720687866, 0.2121058702468872, 0.4237193465232849, -0.7491504549980164, 1.2323933839797974, 0.4902971684932709, 0.7271437644958496, -0.3596974015235901, -1.35580575466156, 0.39163199067115784, 0.09621447324752808, 0.7077382802963257, 0.37255147099494934, -1.4530173540115356, -1.2357938289642334, -0.9637275338172913, -0.41371724009513855, 0.8688092231750488, 0.2396879941225052, 0.2021208554506302, -0.13463255763053894, 0.2927578091621399, 0.0380702018737793, 1.4923393726348877, 0.4719887673854828, -0.14057005941867828, 0.7653722763061523, -1.0598442554473877, 1.00284743309021, 1.7077703475952148, 0.316081702709198, 0.07733866572380066, -2.0290989875793457, 3.243992328643799, 0.6687942147254944], [0.12567470967769623, 0.29261234402656555, -0.0043176631443202496, 0.37229660153388977, -0.22335286438465118, 0.142213374376297, 0.6498797535896301, 0.034094106405973434, 0.5451989769935608, -0.1652158796787262, -0.2125585377216339, -0.11756695061922073, -0.22003626823425293, -0.25394073128700256, 0.5143718123435974, -0.15404973924160004, -0.464933842420578, 1.0029009580612183, -0.5584513545036316, -0.03216349706053734, 0.6337448358535767, 0.2731507122516632, 0.4970790147781372, 0.431456983089447, -0.11073550581932068, -0.08774827420711517, 0.20529447495937347, -0.05878811329603195, -0.7350780963897705, 0.2660977840423584, -0.6716845631599426, -0.17036940157413483, -1.0239933729171753, 0.5227869749069214, -0.3059714138507843, -0.3911106586456299, -0.021080726757645607, 0.25438421964645386, -0.34379979968070984, -0.19065998494625092, -0.07250536233186722, 0.16087785363197327, -0.8071028590202332, 0.6863530874252319, -0.8054194450378418, 0.2702771723270416, 0.047893282026052475, -0.3275275230407715, 0.45229479670524597, 0.20420822501182556, -0.5089147686958313, -0.30788615345954895, 0.6492919921875, -0.28967779874801636, -0.3431702256202698, -0.18006150424480438, -0.196432426571846, -0.3731897175312042, 0.2797504663467407, -0.3649977743625641, -0.2029445767402649, -0.014122179709374905, 0.05657120421528816, -0.44648152589797974, -0.007012881338596344, -0.36924460530281067, 0.21098870038986206, -1.269721508026123, -0.1836671531200409, -0.02535526268184185, 0.22324083745479584, 0.11963217705488205, -0.3795538544654846, 0.13419407606124878, 0.031723976135253906, -0.18110793828964233, 0.024216070771217346, 0.2530341148376465, 0.2394956797361374, -0.47251564264297485, 0.515531599521637, -0.17280732095241547, -0.5788002014160156, 0.49762222170829773, -0.2551709711551666, -0.25506430864334106, 0.23889726400375366, -0.30405521392822266, -0.08132389187812805, -0.7083860635757446, 0.5028988122940063, -0.18145659565925598, 0.2916061580181122, 0.36209121346473694, -0.054195135831832886, -0.017228400334715843, -0.4517439901828766, 0.05447227880358696, -0.020223503932356834, -0.18990790843963623, -0.22743797302246094, -0.06050359085202217, 1.3819090127944946, -0.10595021396875381, -0.26574358344078064, 0.012288020923733711, 0.005280633922666311, 0.3920559883117676, -0.35260140895843506, -0.10005723685026169, -0.0582440048456192, 0.11934573203325272, 0.12355992197990417, 0.39438357949256897, -0.0345650352537632, 0.1941550225019455, -0.29251396656036377, -0.1573476791381836, 0.04445744678378105, 0.3018591105937958, -0.3247244358062744, -0.04826537147164345, -0.09682904928922653, -0.24308593571186066, 0.37145912647247314, 0.28960907459259033, -0.16167359054088593, 0.16865132749080658], [0.3649521470069885, -0.6431399583816528, -0.5130764245986938, 0.05968121439218521, 0.2529849708080292, 0.3267131447792053, 1.2703787088394165, -0.3182748854160309, -1.304671287536621, 1.810532808303833, 1.2807258367538452, 0.350451797246933, -0.0660480260848999, 0.6003873348236084, -0.02286994457244873, -0.4444645643234253, 0.4547140300273895, 0.35608845949172974, -0.34871095418930054, -1.0452463626861572, -0.9045853614807129, 0.5448315143585205, 0.7548399567604065, 0.773231029510498, -0.09334545582532883, -0.7713713049888611, -0.6637372970581055, 0.389083594083786, -0.1643187552690506, -1.904822826385498, 1.3394062519073486, 0.9735115170478821, 0.5205200910568237, 0.5115205645561218, 0.525208592414856, -0.4672705829143524, 1.0738990306854248, 1.539253830909729, -1.1186426877975464, -0.19991831481456757, -1.6609352827072144, 0.0959189161658287, -0.7606241703033447, 0.9238823056221008, -1.0260685682296753, -0.2473035305738449, -0.7557381391525269, -0.6222040057182312, 0.7002276182174683, 0.21070967614650726, -1.3078176975250244, -1.409604549407959, -0.030087785795331, -1.037001371383667, 0.013309606350958347, 1.0748462677001953, -0.4177679717540741, 0.7825003266334534, -0.03541423752903938, 0.10748293995857239, -0.042072147130966187, -0.4794056713581085, 0.4861419200897217, 0.41230931878089905, -0.24643415212631226, 0.07517153769731522, 0.5018552541732788, -1.3688019514083862, 0.43327367305755615, -0.9731569886207581, 0.5524758696556091, -0.3309236168861389, 0.48356136679649353, -2.264059543609619, 0.28539904952049255, -0.16106711328029633, -0.7144522070884705, 0.09386676549911499, -0.15720464289188385, 0.35976114869117737, -0.29573091864585876, -1.1602548360824585, -0.19423316419124603, 1.389479160308838, -0.27164843678474426, 0.2953674793243408, -0.6531650424003601, 0.5907670855522156, 0.07509686797857285, -1.1452683210372925, -0.7735162377357483, -1.3042094707489014, -0.154901921749115, -0.588960587978363, -0.2859199643135071, -0.6276993751525879, 0.07185032963752747, -1.0426217317581177, 0.5216249823570251, -1.2902371883392334, 3.4079153537750244, -0.2642863094806671, -0.39587077498435974, 0.29352205991744995, -0.6612358689308167, 0.2708016335964203, 0.45574331283569336, -0.5593572854995728, -1.0725934505462646, 0.7788791060447693, 0.11644274741411209, -0.8552421927452087, 0.4710873067378998, 1.2934327125549316, -0.975060760974884, 0.630967915058136, 0.009477874264121056, -0.36159130930900574, -0.4241575300693512, -0.5577724575996399, -1.377781867980957, -0.986992359161377, 0.14294825494289398, -0.9940528869628906, 0.6742936968803406, -0.6191778182983398, 0.09791214019060135, 0.19878853857517242], [0.7972804307937622, -1.3319087028503418, 0.7788947820663452, -0.2355269491672516, 0.7699838876724243, 0.5298047065734863, -0.941647469997406, -1.5471346378326416, -0.39472660422325134, -0.16253876686096191, 0.5323352813720703, -0.4905255436897278, -0.6534637808799744, 1.3132586479187012, 0.011069714091718197, -0.7400931119918823, 0.42363378405570984, -0.4839264154434204, 0.4225173592567444, -1.1750109195709229, -1.0202364921569824, -0.18139654397964478, 2.156972885131836, 0.08945953845977783, 0.4343032240867615, 0.13246037065982819, -1.050158977508545, -0.06865979731082916, 0.41182780265808105, 0.3701387047767639, 0.2910102605819702, 1.2027186155319214, 0.3449288308620453, 3.0947015285491943, 0.29801419377326965, 0.49387025833129883, 0.27474409341812134, -0.20502138137817383, -1.8674237728118896, -0.11416641622781754, -1.466711163520813, -0.7071294784545898, -0.06716707348823547, 0.05072678253054619, -0.23102432489395142, -0.8824459314346313, -0.20824934542179108, 2.0102479457855225, 1.233662724494934, 0.757361650466919, 0.6564057469367981, -0.5318053364753723, -0.44393250346183777, 0.6608789563179016, -0.7384982705116272, 0.3402886986732483, 0.17002643644809723, 0.04378601908683777, -0.6378516554832458, 1.4549094438552856, -2.2189078330993652, -0.9905722737312317, -0.044202081859111786, -0.5755887031555176, -0.4342634677886963, -0.07465778291225433, 0.4734090566635132, -1.6940944194793701, 0.56771320104599, 1.7920684814453125, 0.25708192586898804, 0.20580893754959106, 0.7516514658927917, -0.7831571698188782, -0.04698704928159714, 1.258002758026123, -0.5519813895225525, 0.7345461249351501, 1.0021779537200928, 0.8630769848823547, -0.7579720616340637, 0.5887593030929565, 0.3978993594646454, -0.7836165428161621, 0.4956924617290497, -0.35158827900886536, -1.5519530773162842, -1.3784618377685547, 1.1757431030273438, -1.8388253450393677, -1.4630874395370483, 0.27262449264526367, -0.3776916265487671, 0.6011779308319092, 1.2592741250991821, -1.0583189725875854, -1.8811237812042236, 0.4123132526874542, 0.3371313214302063, 0.5519876480102539, -0.03880294784903526, 0.2653529942035675, -0.021345607936382294, 0.7944297194480896, -1.209999442100525, -0.4771804213523865, -2.927001476287842, 0.4388560950756073, 0.08310006558895111, -0.8357016444206238, 0.26464420557022095, -0.979555070400238, -0.1488075703382492, 1.2403324842453003, -1.0888187885284424, 0.1471380889415741, 1.8943222761154175, -1.0531330108642578, 0.8099251389503479, -1.4972553253173828, -0.7788200378417969, 0.8816947937011719, -0.6527596116065979, 0.10551781207323074, 0.5854150056838989, -1.4496675729751587, 1.0697365999221802, -0.020196447148919106], [-0.8730503916740417, 0.14000704884529114, 0.6307915449142456, 0.17684103548526764, 1.596457600593567, 0.9784891605377197, 0.6829761862754822, -0.9914149641990662, 0.0702606812119484, 0.056140873581171036, -1.609833002090454, 0.33400896191596985, 0.23249489068984985, -0.7231971025466919, -0.9499996304512024, -0.4299814999103546, 0.6110219955444336, -0.9208793640136719, 0.08308897912502289, -0.2102801352739334, -2.173499822616577, 1.1532840728759766, 0.27539753913879395, -1.7706644535064697, 0.8620149493217468, -1.800500512123108, -0.08510060608386993, -0.6247631311416626, 1.5428929328918457, -0.7936648726463318, 2.49210262298584, 0.10975698381662369, 1.5139917135238647, 2.291001558303833, -0.15886065363883972, 1.780918836593628, -1.7933224439620972, -2.715012550354004, -1.8732367753982544, 0.14643125236034393, -0.9525225162506104, -2.0385310649871826, 0.707225501537323, -0.7028127908706665, 0.7101947069168091, -0.8407383561134338, 1.2180041074752808, 1.5573148727416992, -1.3210521936416626, 0.3062068521976471, 0.13241367042064667, 0.015424834564328194, 1.312212347984314, 0.33602166175842285, -0.20737648010253906, 0.42021673917770386, -0.9151533246040344, -0.28367841243743896, 1.3001452684402466, 1.4212778806686401, 0.5221441388130188, -1.3641612529754639, 1.3989479541778564, 0.08820132166147232, -0.003265565959736705, 1.9600739479064941, -0.1695500612258911, -2.800577402114868, 0.4110293388366699, 1.0128185749053955, 0.7011330723762512, 2.0103108882904053, 0.4123651087284088, -0.3083032965660095, -0.5728036165237427, 2.84452486038208, 1.040398120880127, 0.5822755098342896, -0.7306252717971802, -0.4594458341598511, 0.2323797345161438, -0.2826307713985443, 0.6715894341468811, 1.1988935470581055, 1.509841799736023, 0.7704707980155945, -0.5311781764030457, 1.1327598094940186, -0.021110933274030685, -1.4397929906845093, 1.5662161111831665, 1.622875690460205, 1.486499547958374, 1.8553653955459595, 1.2736454010009766, -0.08638614416122437, 0.7799604535102844, 0.23519624769687653, 2.5265538692474365, 0.10849665850400925, -1.4002069234848022, -0.022602543234825134, -0.9262595772743225, 0.8265429735183716, -0.8050105571746826, 0.654200553894043, -2.1553077697753906, 0.28753674030303955, 1.0504379272460938, -0.37066349387168884, -0.4730089604854584, 0.7606513500213623, 1.8235695362091064, 0.15056997537612915, 0.13322857022285461, -0.36470353603363037, 0.17640173435211182, 0.7544572949409485, 0.2736748158931732, -0.7831064462661743, -1.4300634860992432, 1.1419447660446167, 1.0873123407363892, 0.6620383858680725, 0.10679414868354797, 1.0740169286727905, 0.4393581449985504, 0.5884040594100952], [-1.5454591512680054, 0.83258056640625, -0.8644217252731323, -0.8213216662406921, -0.868899405002594, 1.4762365818023682, -1.0291965007781982, -1.4961985349655151, 2.0250325202941895, 0.3913417458534241, -1.7546416521072388, 2.6014294624328613, 0.9729467630386353, -2.790125608444214, -0.6519946455955505, 0.4131619334220886, -1.4133657217025757, -0.5699247717857361, 1.6545445919036865, -0.2912178933620453, -0.07351885735988617, -1.3212569952011108, 0.8132278919219971, 0.5161361694335938, -0.09069247543811798, 1.2568871974945068, -1.0721367597579956, 1.49867582321167, 0.402506560087204, -1.524208903312683, 1.274693250656128, 1.6479071378707886, -0.35398000478744507, 0.610658586025238, 0.6137386560440063, -2.110645294189453, -1.7509756088256836, -0.6389203667640686, 1.2107609510421753, -0.5641831159591675, -0.26191020011901855, -0.14746153354644775, -1.4616062641143799, -2.3931097984313965, 2.227266311645508, 0.11564025282859802, -0.4530947208404541, -0.17742525041103363, -0.731274425983429, 1.0930010080337524, 1.2073075771331787, 1.3853493928909302, 0.9450196027755737, 0.4192919433116913, 0.45348647236824036, -1.6851212978363037, 2.4247591495513916, -1.9442683458328247, 2.444650411605835, 1.2847990989685059, -0.6358553171157837, 1.2125577926635742, -1.7673332691192627, -0.9454529285430908, -1.8555704355239868, -0.46719011664390564, -1.0545899868011475, -2.3542370796203613, 1.8529694080352783, 1.1465303897857666, 2.143745183944702, 1.3278919458389282, 1.9320317506790161, 0.21495921909809113, -0.43415728211402893, 1.7942198514938354, 0.5246541500091553, -0.2523174285888672, 0.26170527935028076, 0.9837416410446167, 0.4882279634475708, -0.5428488850593567, 2.4938628673553467, 0.4757145643234253, 0.4534037411212921, 1.181272029876709, 0.6050774455070496, -1.9040918350219727, 0.18673446774482727, 1.1788116693496704, -0.03543541952967644, 0.31382572650909424, -0.7962411046028137, -0.11137985438108444, 1.2722671031951904, 1.6635863780975342, 0.5254924297332764, 1.307285189628601, -0.7071207761764526, 0.4681781530380249, -0.5579598546028137, 0.30618828535079956, 0.7036110758781433, 1.1126123666763306, 1.8794524669647217, -1.1757125854492188, -1.5850045680999756, 1.02175772190094, -0.6848322749137878, 0.29988378286361694, 0.7918677926063538, -0.7181490659713745, 0.8514375686645508, 1.3197301626205444, 2.393933057785034, -1.2458568811416626, 1.1723217964172363, 2.534295082092285, -2.649829149246216, -1.215067982673645, -1.9120122194290161, 1.5360909700393677, 1.2768193483352661, 1.828048586845398, -0.09186580032110214, 1.5242998600006104, -1.553216814994812, -0.20164015889167786], [-0.8762012720108032, -0.4369467794895172, 1.5717307329177856, -0.8559427261352539, -0.2880004644393921, -1.5015387535095215, -0.5140849947929382, 0.18014900386333466, -0.33686918020248413, -1.7674555778503418, -0.1307935267686844, 0.030925503000617027, -0.688933789730072, 1.5430563688278198, 0.016242872923612595, 0.5232864618301392, -1.0049563646316528, 1.2125272750854492, -0.6534801721572876, -1.0918526649475098, -0.13069476187229156, 0.7467032074928284, 0.5575131773948669, 1.283077359199524, -1.743855357170105, 1.4587281942367554, -0.7081906795501709, 0.7557045221328735, 0.4578213691711426, -1.2004806995391846, 0.12896539270877838, 0.941875159740448, -1.7910807132720947, -2.0136287212371826, -1.0910571813583374, 0.07810282707214355, 0.022364482283592224, -0.23565730452537537, -0.3571660816669464, 2.5409908294677734, -0.5957075953483582, 1.3250579833984375, 0.674558699131012, -0.24706435203552246, -0.45837387442588806, -0.11483721435070038, -0.3877298831939697, 0.9935284852981567, 0.49640482664108276, 1.1859387159347534, -0.9688625335693359, 0.19826005399227142, -1.731065273284912, 0.180261492729187, 0.3394222855567932, 0.11282522231340408, 0.3374314308166504, 0.667034924030304, -0.6199613809585571, 0.43065786361694336, -0.29135459661483765, 1.631359577178955, 1.4282448291778564, -0.2092510163784027, -1.1600931882858276, 0.600401759147644, 0.044132791459560394, 0.8893588185310364, 2.343524217605591, -1.0564429759979248, -1.1333696842193604, 0.09503152966499329, 0.43725696206092834, 0.635451078414917, -1.0003688335418701, -0.49321168661117554, 0.32350388169288635, -0.6509895920753479, -1.2909629344940186, -0.6306794881820679, 0.7729141116142273, 0.5798168182373047, -1.3771657943725586, -1.9026050567626953, -0.7940004467964172, -0.12058360129594803, 2.3309214115142822, 1.3914846181869507, 1.2091145515441895, -0.25984033942222595, -0.414684921503067, -0.7524292469024658, -0.63055419921875, -0.07706480473279953, -0.528217077255249, 0.9125855565071106, -1.2755931615829468, 0.5955623388290405, -0.809406042098999, 0.04728104546666145, 0.29995760321617126, -1.6710014343261719, -1.7973045110702515, -0.39216917753219604, 1.329553246498108, -0.30748340487480164, -2.123534679412842, -0.809982419013977, 0.24362662434577942, -1.7263096570968628, 0.21491913497447968, 0.2626675069332123, 1.5882542133331299, -0.12612877786159515, 0.33064112067222595, 1.2210040092468262, 0.23304586112499237, 0.9586700797080994, -0.8408242464065552, 0.029291823506355286, 1.0317494869232178, 0.35476627945899963, -0.8453377485275269, -0.13109615445137024, -0.21913456916809082, 0.8469278812408447, -0.05830086022615433, 0.17278234660625458], [-0.07130242139101028, 0.0809130072593689, -0.13310885429382324, -0.14622195065021515, -0.16343966126441956, 0.3551548421382904, 0.8291534781455994, 0.43896350264549255, -0.2970210313796997, -0.43291378021240234, 0.40773311257362366, -0.04642239958047867, -0.2429153472185135, -0.29842665791511536, -1.3998620510101318, -0.38941076397895813, -0.9951672554016113, -0.0032068302389234304, 0.4285027086734772, -0.30907294154167175, -0.5454552173614502, -0.0554439052939415, 0.39008501172065735, 0.3775104582309723, -0.20851629972457886, -0.1932302713394165, -0.30566561222076416, -0.1988428831100464, -1.0541855096817017, 0.9654592275619507, -0.7988302111625671, -0.14487533271312714, 0.06889787316322327, 0.07819540053606033, 0.8040317893028259, 0.12855246663093567, -0.4096294939517975, 0.9879399538040161, -0.07079515606164932, -0.2238198071718216, 0.20688661932945251, 0.044791579246520996, -0.21281291544437408, -1.0692704916000366, -0.20485834777355194, 0.24553275108337402, 2.214874267578125, 0.5130780935287476, -0.23624920845031738, 0.5008214712142944, 0.3785725235939026, -1.2065833806991577, -0.8323160409927368, 0.037359271198511124, 0.17845219373703003, 0.8289869427680969, -0.48812180757522583, 0.30071836709976196, 0.7230851054191589, -0.561994194984436, -0.4383508265018463, -0.42708447575569153, -0.27783113718032837, -0.0968831405043602, 0.23081685602664948, -0.2368413805961609, 0.00916967075318098, -0.6890441179275513, 0.0417754240334034, -0.7126085162162781, 0.3813852369785309, -0.4143546223640442, 0.049756430089473724, -1.0297389030456543, 0.2207755595445633, -0.6727166175842285, -1.1751655340194702, -0.05829404294490814, 0.22318559885025024, -0.20209938287734985, -0.0005036509828642011, -0.5192986726760864, 0.15769419074058533, 1.0378810167312622, 1.0917527675628662, -1.2383702993392944, -0.11610516905784607, -0.8171809911727905, -0.33080726861953735, 0.7271994948387146, 0.06825140863656998, -0.296783983707428, 0.8539701700210571, -0.290535032749176, -0.3946600556373596, -0.22175884246826172, -0.5638076663017273, -0.6986124515533447, 1.039347529411316, 1.662793517112732, 1.1100711822509766, -0.6444796323776245, 0.15602904558181763, 0.47186747193336487, -0.3201773762702942, -0.21227805316448212, 0.29986828565597534, -0.5125165581703186, -1.4645988941192627, -0.3029811978340149, 0.09798010438680649, -0.08043525367975235, 0.43348532915115356, 0.4059959948062897, 0.9073742628097534, 0.8048191070556641, -0.4988580346107483, 1.1497396230697632, 0.10671521723270416, -0.5649451017379761, -1.0032528638839722, -0.28281524777412415, -0.5803477764129639, -1.144966959953308, -0.09268268197774887, -0.6766019463539124, -0.7022616267204285, 0.2339327335357666], [-0.2639530599117279, 0.9927639961242676, 0.9602495431900024, 0.08409720659255981, -0.2598807215690613, 0.4917863607406616, 0.08395300060510635, -1.9542264938354492, -0.5542098879814148, 0.7002735733985901, 0.8553841710090637, 0.978585422039032, 0.5461892485618591, 1.0787177085876465, -1.540208101272583, -0.5435371994972229, 1.1824610233306885, 0.5515291690826416, -0.49715456366539, -0.5736450552940369, -1.2736819982528687, 0.4231273829936981, -0.37927567958831787, 2.5343258380889893, -0.5796141624450684, -0.1630285084247589, -0.4047721326351166, 0.5472801327705383, 2.583113670349121, -0.15178507566452026, 0.036596205085515976, -0.15104630589485168, 1.5601361989974976, 0.9211626648902893, 1.6271429061889648, 0.41526535153388977, -0.3508550524711609, -0.22476838529109955, -0.0844777375459671, 0.44864994287490845, -1.186643123626709, 0.09709078073501587, 1.166873574256897, -0.7344306707382202, 0.5311642289161682, 0.330127090215683, 2.545158863067627, -1.5719807147979736, 2.055208206176758, 0.31666886806488037, 0.7346591949462891, -1.1141687631607056, -0.2968151271343231, -0.09835519641637802, 0.6818661689758301, -0.5042018890380859, 0.8187090754508972, 0.2426883578300476, -0.7900301814079285, 1.4731957912445068, 0.12741979956626892, -0.05350147932767868, 0.8094322085380554, -0.8416072726249695, -1.5491584539413452, -0.8872955441474915, 1.086654782295227, -0.042509034276008606, -0.5058743953704834, -0.6897978782653809, 1.604874849319458, -0.05409032851457596, 0.2997193932533264, 0.49843263626098633, -0.9327898025512695, 0.5633282661437988, -1.1590765714645386, 3.0870184898376465, 0.22169378399848938, -2.8399879932403564, 0.26277536153793335, -0.799323320388794, -0.8596039414405823, -2.387099027633667, 0.5038308501243591, 0.3036338984966278, -0.6277282238006592, -0.7854453325271606, 0.3131404519081116, -1.2975354194641113, 1.5378972291946411, -0.4998365342617035, 2.247581958770752, -0.4645374119281769, 0.4155433177947998, -0.26354342699050903, 0.3389158546924591, -1.0643948316574097, -1.6506298780441284, 0.6883856654167175, -0.02926870435476303, 0.5382046699523926, -1.479920506477356, 0.7481998205184937, 0.04130752384662628, 0.06921608000993729, -0.5263873934745789, -0.6921296119689941, -0.5689029693603516, 0.18104761838912964, 0.15092594921588898, -0.9782112836837769, -0.8213952779769897, 1.9914956092834473, -0.9673526883125305, 1.8773669004440308, 1.3069703578948975, 0.9989903569221497, -0.2281351089477539, -1.4843004941940308, -2.1192848682403564, 0.2026493102312088, -1.0809152126312256, -0.5206822156906128, 1.0046623945236206, -1.4505351781845093, -1.4843446016311646, 0.2397167980670929], [0.8135610818862915, 0.5892907977104187, 0.9920732975006104, -0.5983239412307739, 1.648541808128357, -0.3898817300796509, 0.34698960185050964, -0.6313802599906921, -0.5306110382080078, 0.5335307121276855, 0.32881471514701843, -0.7535380125045776, 0.16968941688537598, 1.6245936155319214, 1.995086669921875, 0.9105820059776306, 0.6454517841339111, 0.4692533314228058, -0.6200540065765381, -0.7302982211112976, -1.4980542659759521, -0.38746777176856995, 1.2276438474655151, 0.9673222899436951, 0.08158108592033386, -1.281027913093567, 1.3093205690383911, -1.4917933940887451, -0.7742290496826172, 1.3390036821365356, 1.117614507675171, 0.6584703922271729, 0.43826448917388916, 0.8115121126174927, 0.20770354568958282, 0.5988427996635437, -0.027970479801297188, 1.281645655632019, -0.7086963653564453, -0.9523497819900513, -0.548988401889801, -2.159738779067993, 0.06754592061042786, -4.277303218841553, 2.863870143890381, 0.2805745005607605, 1.86356782913208, 0.09670829772949219, -2.1574645042419434, 1.5347537994384766, 0.4990815222263336, 0.4738655090332031, 0.7480092644691467, -0.3470833897590637, -0.1740661859512329, -1.6704925298690796, 1.5803077220916748, 0.219573974609375, -1.218727707862854, -0.2666211724281311, 0.17837141454219818, -0.3558526635169983, -0.7557873129844666, -0.21973206102848053, -1.1188879013061523, 1.0064797401428223, 0.9079630970954895, -0.36270108819007874, 0.4789555072784424, 0.7260426878929138, 2.274245262145996, 1.2657910585403442, -1.4949814081192017, -0.6896318197250366, 0.02819499745965004, 3.2561581134796143, 1.718399167060852, -1.0020633935928345, -1.4849013090133667, -0.4772195518016815, -0.48142141103744507, 0.5854648947715759, 1.6062440872192383, -1.339455008506775, 2.124785900115967, 0.7487910985946655, 0.135806605219841, -1.552079677581787, -0.6222939491271973, -1.6119450330734253, -0.3258466422557831, 0.7411950826644897, -0.17012381553649902, 0.5321651101112366, 0.3179987072944641, -1.278173804283142, 0.7225173711776733, 0.23931412398815155, -0.4304507076740265, 1.351271152496338, -2.6119513511657715, -0.3461683392524719, -1.386452555656433, 0.3369881808757782, -0.18405205011367798, 0.19325053691864014, 0.4663662314414978, -0.8571310639381409, 0.05578695237636566, 0.4982450306415558, 2.258613109588623, -0.6518828272819519, 0.6564295291900635, 0.41819724440574646, -0.44275206327438354, -0.4799919128417969, 0.6395273804664612, 0.05860535427927971, 0.6899442672729492, -1.5075081586837769, -1.7478793859481812, -0.6409360766410828, -1.4939734935760498, 0.5155795216560364, 0.5413292050361633, 0.438673198223114, -1.19065523147583, 1.7390726804733276], [-0.02618757262825966, 0.08586554229259491, -0.2021436095237732, 0.4568760395050049, 3.43998122215271, 0.3351230323314667, 1.3403047323226929, -0.6237208247184753, 1.142903447151184, 1.2069915533065796, -1.7513058185577393, 2.422884941101074, 1.5768170356750488, -0.6994385719299316, -0.9339693784713745, 3.7980897426605225, 1.1020710468292236, -1.6461434364318848, 1.9717955589294434, -2.4224436283111572, -1.2684776782989502, 2.5394904613494873, -0.47220924496650696, 0.39011383056640625, -0.7992476224899292, 1.2207207679748535, 0.5630483031272888, 2.430536985397339, 1.537211298942566, -0.8643844127655029, 0.5941044092178345, 0.9730196595191956, 0.6376617550849915, -0.5358314514160156, 1.2874351739883423, -0.6430577039718628, -0.6367396712303162, -0.8687894940376282, 0.12017805129289627, -0.2904850244522095, 0.49197259545326233, -1.9881659746170044, -2.793226957321167, -2.5321474075317383, 1.7342426776885986, 2.565999746322632, 1.3120396137237549, 1.1363091468811035, -1.953364372253418, 1.3357282876968384, -0.8861491084098816, 2.7351529598236084, 0.5181717276573181, 0.5963455438613892, -0.5713523626327515, -1.9458949565887451, 1.0477190017700195, 0.504123330116272, -1.7045328617095947, 1.7372385263442993, 1.3767105340957642, -0.44114866852760315, -1.2982438802719116, -0.424409419298172, -2.727299690246582, -0.11398804932832718, -2.1723082065582275, -0.21288619935512543, 2.659968614578247, 0.7259954810142517, -1.0931565761566162, 1.2161451578140259, -0.7785763740539551, -1.9884380102157593, 1.2437183856964111, -1.3830342292785645, 2.6995339393615723, -0.5580899715423584, 0.43874651193618774, -2.3217155933380127, 0.9375566244125366, 2.560227394104004, 1.1873153448104858, 0.6466817855834961, 1.584279179573059, -0.6955702900886536, -1.4442791938781738, -3.6560728549957275, -1.542723536491394, -1.1111966371536255, -0.01531792152673006, 1.05394446849823, -0.13011673092842102, 0.6289560198783875, 0.3457861840724945, 1.5394415855407715, 2.061742067337036, -0.051967818289995193, -0.21918518841266632, 0.38826966285705566, 0.29117512702941895, 2.0816450119018555, 0.9504091739654541, 1.2447476387023926, 1.49496591091156, -1.028430700302124, 0.10313814133405685, 1.0129508972167969, 1.6367896795272827, -2.3873980045318604, 1.9934998750686646, 1.661795973777771, -0.43229931592941284, -0.3036385476589203, 3.3570916652679443, -2.4167184829711914, 0.5553913712501526, 0.5990742444992065, -2.4046683311462402, -2.626162052154541, -1.4814453125, 1.408626675605774, 0.23675967752933502, 1.7085087299346924, 0.7879452109336853, -0.01650356501340866, -1.9126815795898438, -0.22084619104862213], [-1.373023271560669, -1.4034451246261597, -0.9382294416427612, 0.20282620191574097, -1.9713208675384521, 0.5317214131355286, 0.42604535818099976, 0.019306180998682976, -0.3841567635536194, -0.06605178117752075, -0.7634660005569458, 0.3345741331577301, -0.23715291917324066, 0.5257922410964966, 1.497758150100708, -0.05128370225429535, -2.087646961212158, -0.800360381603241, 1.3210630416870117, -1.8836066722869873, 0.4357357621192932, -0.104481540620327, -2.4237685203552246, 0.5573514699935913, 0.7213140726089478, 1.0562456846237183, -0.8991655707359314, -1.0401976108551025, -1.272161602973938, -0.08809395134449005, -1.2739542722702026, 0.38314515352249146, -1.540039300918579, -0.0767005905508995, 0.11346984654664993, -1.6263498067855835, 0.6101188063621521, -2.300950050354004, -0.164812371134758, -0.2735593020915985, 0.13725553452968597, 1.7244209051132202, -0.7100136280059814, -1.163330078125, 0.8831347227096558, -1.5349520444869995, -2.0100934505462646, 0.19679011404514313, -2.5574748516082764, 0.5731977224349976, 0.7408055663108826, -0.08518160879611969, -0.9256494641304016, 0.5456748008728027, 0.41484972834587097, 1.770756721496582, -0.8721054196357727, -0.7788294553756714, -0.6754981875419617, -0.005471025127917528, 0.7094112634658813, 2.489182233810425, -0.25976788997650146, 0.7340996265411377, -1.311071753501892, 0.360083669424057, -1.8018962144851685, -0.8333616852760315, -0.6418755054473877, 0.8931359052658081, -0.4144675135612488, -0.31734007596969604, 0.08215702325105667, -0.9881188273429871, -1.0835140943527222, 0.14852023124694824, -1.0456384420394897, 0.23675157129764557, 0.8493643999099731, 1.000458836555481, -1.1003303527832031, -0.7711868286132812, 0.29522275924682617, 0.8870332837104797, -0.08645328134298325, 1.3319123983383179, 0.06675364822149277, 1.7782608270645142, -1.6071443557739258, -1.3610811233520508, 2.3371164798736572, 2.056811809539795, 0.8184773325920105, 0.7398560643196106, 0.3355482518672943, 1.3606611490249634, 0.33894723653793335, 0.014150381088256836, -0.26850712299346924, 0.20107468962669373, -0.6372034549713135, 1.7260295152664185, -0.30775323510169983, -0.8599320650100708, -1.8904911279678345, 0.4991318881511688, -0.12105992436408997, -0.64769047498703, 0.29667046666145325, 0.8138921856880188, -0.3257920444011688, -0.7994045615196228, -1.2626841068267822, -0.7456651329994202, 2.1707074642181396, 0.28617826104164124, 1.5219056606292725, -0.996128499507904, -1.7496172189712524, -1.3718453645706177, -0.8568974137306213, 0.6753761172294617, 2.719740152359009, -0.9152540564537048, 0.5003786087036133, -0.6098827123641968, 0.026316160336136818, -0.4982861578464508], [0.4574381709098816, 0.23700930178165436, 0.3716312050819397, -0.07335760444402695, 1.0635234117507935, -0.003894528839737177, 0.9680478572845459, 0.8860887289047241, -0.24188831448554993, -0.10343938320875168, 0.9595004320144653, -0.33841845393180847, -0.6885032653808594, 0.4019799530506134, 0.5843402743339539, -0.41595956683158875, -1.1504569053649902, 0.8074305653572083, -0.4986496567726135, 0.6635515689849854, -0.26751238107681274, 0.9667118787765503, -0.15435372292995453, -0.39111602306365967, -0.35567477345466614, -0.3117810785770416, 0.21246224641799927, 0.9526260495185852, -0.2175903469324112, 0.26422521471977234, -0.009226398542523384, -0.3541511595249176, -0.6597526669502258, 1.301166296005249, -1.2624822854995728, 0.24038627743721008, -0.13175690174102783, 0.23866479098796844, 0.21642561256885529, -0.6204373240470886, 1.0592063665390015, 1.1425645351409912, -0.5830996036529541, 0.3559923470020294, 0.20303265750408173, 1.3571991920471191, -0.13771051168441772, 0.6635102033615112, -0.2724166512489319, 0.3737117350101471, -0.2397529035806656, 0.19902090728282928, 0.6908067464828491, 1.3877133131027222, 0.05338001251220703, 1.2427486181259155, 0.8237573504447937, -0.22962543368339539, -0.20409375429153442, -0.08313795924186707, -0.3143762946128845, -0.5443200469017029, -0.13148772716522217, -0.42973607778549194, -0.5978398323059082, 0.5278751254081726, -0.834054708480835, -0.5765655636787415, 0.48372241854667664, 0.059876129031181335, 0.7389264106750488, 0.5762060284614563, -0.24326477944850922, -1.0673854351043701, -0.3508484661579132, 0.6722977757453918, -0.554201066493988, 0.5681225061416626, -0.14993122220039368, -0.23405344784259796, 0.03608531877398491, -0.6665766835212708, -0.5212506651878357, -0.4335786700248718, 0.2690463662147522, -0.6111335158348083, -0.2909250855445862, 0.5227847695350647, 0.2139902412891388, 0.7236018776893616, 0.12520650029182434, 1.15114426612854, -0.049525439739227295, -0.13477502763271332, -0.11934525519609451, -0.5163819193840027, -0.1295095831155777, -0.5492737293243408, -0.6580786108970642, -0.36142656207084656, -1.415398359298706, 0.49627041816711426, 0.20853261649608612, 0.04771028831601143, 0.018853671848773956, 1.7813833951950073, -0.17699101567268372, -0.9857652187347412, -1.8227910995483398, 0.3250429332256317, 0.22873303294181824, 0.30270782113075256, 0.41342926025390625, 0.7211213707923889, 0.11132000386714935, 0.3817442059516907, 0.10651865601539612, -0.26739510893821716, 0.41190972924232483, 0.6482993364334106, 0.3529685139656067, -0.08029326051473618, 0.28049638867378235, -1.0790090560913086, 0.3121485710144043, -0.45522648096084595, 0.2276819795370102, 0.48541849851608276], [-0.8133714199066162, 0.36542031168937683, 1.1564629077911377, 1.2931748628616333, 0.3821236193180084, -0.744949221611023, -0.14038115739822388, -0.06956807523965836, 0.8494107723236084, 0.8031268119812012, 0.07317286729812622, -0.7538385391235352, -0.5680404901504517, -0.29681289196014404, -0.14286917448043823, -1.2654824256896973, 0.5617988705635071, -1.7699189186096191, -0.7422957420349121, -1.3430287837982178, -0.3868827223777771, 0.6856896877288818, -1.7166965007781982, 1.1091591119766235, -1.584609866142273, -1.9445427656173706, 0.9079697132110596, -2.7267675399780273, 1.0714606046676636, 1.5364669561386108, 0.6370494961738586, -1.59429132938385, 1.7079211473464966, 1.7291028499603271, 0.3326468765735626, -0.023888904601335526, -0.8446803689002991, -2.070427656173706, -0.13608218729496002, 0.11191052943468094, -1.6405212879180908, -0.756184458732605, 1.1324472427368164, -0.6944011449813843, 0.22510720789432526, -0.9923404455184937, 1.6841105222702026, -1.662997841835022, 0.23555192351341248, -0.7001363635063171, -0.6216840744018555, 0.3763156831264496, 0.3791162967681885, -0.023385711014270782, 0.15171527862548828, 0.4828060269355774, 1.0054569244384766, 0.250187486410141, -0.08186626434326172, 1.8287760019302368, -1.1847625970840454, -1.2622894048690796, -0.5090183019638062, 0.07991894334554672, -0.32348665595054626, 1.5489450693130493, -0.6620405912399292, 0.35006970167160034, 1.065963864326477, 0.5269966721534729, -0.21540652215480804, 2.3074522018432617, 2.0080068111419678, -1.1020265817642212, -0.9731046557426453, -0.24938169121742249, 2.052628517150879, -0.26199737191200256, 2.4794728755950928, 0.03603307157754898, -0.2781277298927307, -0.5765246748924255, 0.6208674311637878, -1.8735504150390625, -1.1537600755691528, 0.43743088841438293, -0.6898314952850342, -0.5385314226150513, 0.033405229449272156, -2.1459426879882812, 0.4081794023513794, 0.8760573267936707, 1.9719513654708862, 1.1552400588989258, 0.18264101445674896, -1.180391788482666, 0.12119806557893753, 1.8701603412628174, -1.207396149635315, 1.0374577045440674, 0.5787022709846497, -0.4654075503349304, -1.3437821865081787, 1.603401780128479, -0.8942950963973999, 0.41593804955482483, -1.3143310546875, -0.019245261326432228, -1.8369406461715698, 0.787481963634491, 0.11851174384355545, 0.8234192132949829, 1.1910563707351685, -0.2372043877840042, 0.13124068081378937, -0.7286117672920227, -1.1496373414993286, 1.1210447549819946, -0.7587271928787231, -1.2241724729537964, -2.7614874839782715, -2.0783333778381348, -0.7478834390640259, -0.23592279851436615, 0.754008948802948, 0.8305512070655823, -2.211761713027954, -0.5570817589759827], [-0.2701129615306854, -1.5810291767120361, 0.4631357192993164, -0.7146853804588318, 2.7657086849212646, 2.187600612640381, 0.8449764251708984, 1.6823729276657104, 2.746608018875122, -0.23996280133724213, -1.3664857149124146, 1.095595121383667, 0.8296491503715515, -2.1576008796691895, -0.7546730041503906, 2.996232509613037, 0.5941973328590393, -1.9553685188293457, 2.3475728034973145, -3.7260217666625977, 0.4128320515155792, -2.023878335952759, 1.9402813911437988, -0.8739638924598694, 1.134695291519165, -1.9996702671051025, 1.3771450519561768, 1.900542974472046, 0.2186325192451477, -0.0680079311132431, 0.6311898231506348, 0.5301311612129211, 2.0110623836517334, -2.176201105117798, 0.6905534267425537, -0.7204893827438354, -2.1440975666046143, -0.016910549253225327, -1.8222739696502686, -1.128821849822998, 0.43265679478645325, -0.5740302205085754, -2.3884050846099854, -2.4059512615203857, 1.0539013147354126, -0.23281918466091156, 0.9100485444068909, -0.010508609935641289, -2.973806858062744, -0.18773974478244781, -0.602500319480896, 0.1799720823764801, 2.192866086959839, 1.0654351711273193, 0.5592580437660217, -0.2083663046360016, 2.288113832473755, 1.4802192449569702, -1.1862387657165527, 0.16262026131153107, 0.5211969017982483, -0.07746870070695877, -1.1504473686218262, 0.04359443858265877, -0.7489325404167175, 1.8599190711975098, 1.4445713758468628, 1.014938473701477, 1.0606050491333008, 0.746550977230072, 0.8958643674850464, 2.39435076713562, -0.32191815972328186, 1.5892680883407593, -1.840000867843628, 0.3159518241882324, 1.423262596130371, -0.8006981015205383, -1.678309679031372, 1.0581265687942505, 0.18620945513248444, 0.8029352426528931, 0.9590212106704712, 0.7507571578025818, -1.0015228986740112, 2.2711141109466553, 1.024145483970642, -4.244516849517822, 1.816341519355774, -1.1440515518188477, 1.1090636253356934, 0.6106128692626953, -0.07336345314979553, 3.4497244358062744, 0.17232413589954376, 1.2711588144302368, -0.031313784420490265, -0.9376994371414185, -1.760156273841858, 1.295404314994812, 1.2043139934539795, 0.12823159992694855, -1.4219928979873657, -0.3977828323841095, 0.2801879942417145, -1.5870697498321533, 0.041539985686540604, -1.2386196851730347, -0.7517236471176147, -1.4321008920669556, 1.0609536170959473, 1.510026216506958, -0.44464874267578125, -0.5493744015693665, -0.5621508955955505, -0.520376980304718, 0.9357663989067078, 0.06696991622447968, -3.3244543075561523, -0.6661422848701477, -1.5937923192977905, 1.6745855808258057, 0.9772838354110718, 1.9989147186279297, 1.829369068145752, -1.917934775352478, -0.978453516960144, 0.8932425379753113], [0.4614733159542084, -0.41090765595436096, -0.383659690618515, -1.309049129486084, 0.4028944671154022, -0.7225399613380432, -1.7256890535354614, -0.7984912395477295, 0.3448125123977661, 0.8727883100509644, -1.412856101989746, -1.2866634130477905, 0.35265371203422546, 0.15995992720127106, 0.06730813533067703, -0.545330286026001, -0.5295354127883911, -0.3575013279914856, 1.4041131734848022, -0.6754453182220459, 0.4488190710544586, 0.7767748832702637, 0.6843770742416382, -0.4726358950138092, 0.453127920627594, 2.0080461502075195, 0.7058808207511902, -0.7908125519752502, -0.5340098142623901, 0.21675294637680054, -0.5105754137039185, -0.07253899425268173, -0.9954662322998047, 0.8975416421890259, 1.8765696287155151, 0.5694599747657776, 0.2717309296131134, -0.46330538392066956, 0.5001862049102783, 2.5582807064056396, -0.6633340120315552, 0.5687876343727112, 0.19207561016082764, -0.9146246910095215, -0.24358439445495605, -0.34868666529655457, 1.6206598281860352, 0.34237611293792725, 0.01848975010216236, -0.716090202331543, 0.6347752809524536, -1.3396108150482178, 1.5817797183990479, -1.2003244161605835, 0.2528824508190155, 1.1019569635391235, -0.7234873175621033, -1.3826264142990112, 0.7684259414672852, 0.3362772464752197, -0.0202480535954237, -0.5162621736526489, -0.8953449130058289, -0.26473337411880493, -1.8126736879348755, -2.055624485015869, 0.7811954617500305, 0.30114343762397766, 0.15078438818454742, 0.33424878120422363, -0.5912787914276123, 0.6601767539978027, 0.39110562205314636, 0.16541019082069397, -0.4149187505245209, 0.6466593742370605, -0.1221480742096901, -0.13968636095523834, -1.1788970232009888, -0.4513811469078064, 0.5361334085464478, -1.4803059101104736, -0.3706149160861969, -0.49314892292022705, -0.32793858647346497, -0.8385032415390015, 1.3609782457351685, -0.3104358911514282, 0.29065895080566406, 1.5235464572906494, 1.325531005859375, 0.5661134719848633, 1.4752013683319092, -1.149240255355835, -0.6301703453063965, 1.4546314477920532, 0.7379027605056763, -1.7734209299087524, -0.36108267307281494, 1.0194982290267944, -0.08718222379684448, -0.2239532321691513, 0.9332273602485657, -0.18475793302059174, -0.9748125672340393, 2.5441055297851562, -0.223745658993721, 1.03236985206604, 0.388679563999176, 0.596541702747345, -0.12242354452610016, 0.4240749180316925, 1.02334463596344, -0.7390697598457336, -0.8651143312454224, 0.0792401060461998, -1.0643620491027832, -0.11793207377195358, 0.8623378872871399, 1.3387788534164429, 2.439863443374634, 0.3122764527797699, -1.3106480836868286, -1.6468218564987183, -0.8205379247665405, 1.2229567766189575, 0.6604509353637695, -0.32670724391937256], [-0.9653545022010803, -0.8621537685394287, -0.31526944041252136, 1.6444624662399292, 1.2192027568817139, 1.218941569328308, 0.3036024272441864, -1.5610454082489014, 1.3213036060333252, -0.4213077425956726, -0.1742781549692154, -0.048957277089357376, 0.104698546230793, -1.2713090181350708, 0.5767980813980103, -0.41774827241897583, -0.3317781090736389, -1.6631169319152832, -0.20387224853038788, -1.0025852918624878, -0.5006211996078491, 0.49410250782966614, 0.7639618515968323, 0.8792383074760437, 0.9038885831832886, 0.17844438552856445, 0.33759966492652893, -0.05603954941034317, -1.7110744714736938, 0.6710609197616577, 1.4695390462875366, -1.389450192451477, 1.2888696193695068, -0.8354508280754089, 0.1717747449874878, 0.0631287470459938, -1.1852997541427612, 0.38486921787261963, -0.3410748839378357, -0.05396941676735878, -0.8100466132164001, 0.5689066648483276, 0.06875515729188919, 0.5723481774330139, 1.534075379371643, -0.5073717832565308, 2.1684722900390625, 0.38435521721839905, -1.9173539876937866, -0.08415131270885468, -0.33604860305786133, 0.6530292630195618, 0.7706937193870544, 0.798814594745636, 1.290169358253479, 2.53218936920166, -0.4334768056869507, 1.103354573249817, 0.7003312706947327, -0.704804539680481, 0.5262942314147949, 0.9354509711265564, 0.8807187676429749, 0.10775719583034515, -0.5257794260978699, -0.43853428959846497, 0.8841139674186707, -0.7897344827651978, -0.5446942448616028, -0.18616771697998047, -0.1860363632440567, -0.08723413944244385, 1.0572808980941772, -1.2545489072799683, 0.8530091047286987, -0.2920401990413666, 1.0813331604003906, -0.38995036482810974, 0.5771210193634033, -0.6763514876365662, 2.2490155696868896, 0.10513318330049515, -0.6099717020988464, -1.7399494647979736, -0.8908527493476868, -0.7032670378684998, -0.661639928817749, -1.5230311155319214, 0.9819208979606628, -0.41602393984794617, 0.5505328178405762, 0.5149582624435425, 1.1368601322174072, -0.06757063418626785, 0.24506588280200958, 0.018410731106996536, -2.9966373443603516, 0.42372196912765503, -1.512778401374817, 0.3674750030040741, -2.345689058303833, -0.471847802400589, -1.1980725526809692, 0.10300426185131073, -1.4128144979476929, 0.29961591958999634, 0.7109673023223877, -0.4831012487411499, -2.286715269088745, 0.46423354744911194, 0.5833550691604614, -0.26526689529418945, -0.6507201194763184, 0.8233363032341003, 1.295975685119629, 0.7706865072250366, -0.9372011423110962, -0.6021857261657715, -0.9300982356071472, -0.18518076837062836, -1.6399825811386108, -0.29041561484336853, -0.15316317975521088, 1.0948985815048218, -1.035549283027649, -0.8143605589866638, -0.09908498078584671, -0.31847620010375977], [-1.4986469745635986, 0.9405180811882019, 2.8209009170532227, -0.3956424593925476, 3.5762836933135986, 1.7952557802200317, 1.0112091302871704, 0.14077064394950867, -0.10260213911533356, -2.353184938430786, -0.3215639591217041, 1.384670376777649, 1.3404279947280884, -1.91074800491333, 1.953730821609497, 2.5805811882019043, -0.15969984233379364, -0.9188535213470459, -0.7302404642105103, 0.14515402913093567, -0.47546982765197754, -1.682234764099121, -0.049620844423770905, -1.0047281980514526, 1.8051812648773193, -2.1931583881378174, 0.5657583475112915, 3.8433496952056885, -0.6937329173088074, -0.30333080887794495, 2.1540279388427734, 1.347514033317566, 1.068084716796875, 0.5159069299697876, -0.41604408621788025, 1.0935399532318115, -0.37463098764419556, -0.36960065364837646, 0.7344745397567749, -1.8678590059280396, -2.1330738067626953, -0.0925355777144432, 1.546432614326477, -1.4871296882629395, -0.09387132525444031, -1.702729344367981, 0.22430086135864258, -1.4093327522277832, -0.933040201663971, 1.863817572593689, 0.4616459608078003, -0.4191514551639557, 2.428946018218994, -0.14143125712871552, -0.0038783131167292595, -0.06764163821935654, -1.906879186630249, 0.17386585474014282, 2.955007791519165, -0.5686889290809631, 0.5332410335540771, -0.3638281524181366, -1.9071494340896606, -0.4744890034198761, 0.4191238582134247, -0.5893555879592896, 1.4581130743026733, 3.1680643558502197, -1.2838772535324097, 1.0155296325683594, 1.3498971462249756, 1.2029331922531128, 2.308584213256836, 0.4087715446949005, -0.4686466455459595, 1.9150489568710327, 1.1330592632293701, 1.3724087476730347, -0.991575300693512, 0.5763476490974426, 0.8977609872817993, -0.8657022714614868, 1.492925763130188, -1.6641310453414917, -1.0365848541259766, 0.21676161885261536, 0.5601558089256287, -1.0479620695114136, -0.6185266971588135, 0.8235570788383484, 2.0069656372070312, 2.1193253993988037, -0.39739444851875305, 1.4556286334991455, -2.831393003463745, 0.5433061718940735, 1.257541298866272, 0.9013041853904724, 1.2159849405288696, -0.05272017791867256, 0.4563259482383728, -0.699840784072876, 1.3096685409545898, 1.099195957183838, -0.16878089308738708, -0.19316677749156952, 0.06413376331329346, -0.7561410069465637, -0.43206366896629333, -1.908106803894043, 0.444732666015625, -0.6554626226425171, -0.8866072297096252, 1.630680799484253, 1.3683079481124878, -2.00905704498291, 0.16089078783988953, 2.18552303314209, -0.3120073974132538, -3.2624714374542236, -3.5754263401031494, -0.6716178059577942, -0.7699949741363525, 1.0779248476028442, 0.041058871895074844, 0.17433054745197296, -0.12385950237512589, -0.1916796863079071], [-1.7578017711639404, -0.9489004611968994, -1.295071005821228, 0.6642144322395325, 1.700788974761963, -1.125413179397583, -2.1701576709747314, -0.876000702381134, -0.33693212270736694, 0.5833469033241272, -0.5900025367736816, -0.06695687770843506, -0.8696064949035645, 1.195623517036438, -1.1064894199371338, -1.4162533283233643, 1.288629174232483, -1.3065675497055054, -1.0076963901519775, 0.40927666425704956, -0.13190168142318726, 0.041418012231588364, -1.0806844234466553, -0.36383673548698425, -0.1610332429409027, 0.7786886692047119, -0.3606753349304199, 0.8948309421539307, 0.09903455525636673, 1.1611794233322144, 1.1236965656280518, -0.4109150171279907, -1.5272431373596191, -1.3823986053466797, -0.5679794549942017, 1.4957735538482666, 1.328934907913208, 0.13688544929027557, 1.0136302709579468, -0.8958699107170105, -0.3653389513492584, -0.8451212644577026, -0.892907977104187, -0.9458902478218079, -2.992448568344116, -0.7602258920669556, -0.7349093556404114, 0.4065569043159485, 0.2641140818595886, 0.616020679473877, -0.5121716260910034, 0.9707576036453247, 0.33759403228759766, 0.3020903468132019, 0.9900020956993103, -0.19273506104946136, 0.4300662875175476, 0.5157527923583984, -0.5028616189956665, 0.4963444173336029, 0.05906049534678459, 1.6255815029144287, 0.658297598361969, -0.21117128431797028, 0.13484542071819305, 0.7201221585273743, -1.4963129758834839, -0.5784355401992798, -0.012830015271902084, 0.4585452973842621, -0.7398417592048645, -0.06027260422706604, 1.8493294715881348, 0.18225212395191193, 1.6560057401657104, 0.605182409286499, 0.9472259879112244, 1.2849845886230469, 1.3413175344467163, -0.2273048311471939, -0.34034278988838196, 1.0361300706863403, -0.4129011929035187, 1.7483769655227661, 0.3426336646080017, 0.3944993317127228, 0.38737139105796814, -1.0784138441085815, 0.5038502216339111, -1.1290942430496216, -0.13165736198425293, -0.6440823078155518, -0.4774572253227234, -0.5923525094985962, 1.0169323682785034, 0.564203679561615, -0.10969439893960953, -0.183161199092865, -1.4954391717910767, -1.662252426147461, 0.7692908644676208, 0.4344737231731415, 1.533136010169983, -0.05504518747329712, 0.12522539496421814, -0.9867505431175232, 0.03863424435257912, -2.1849865913391113, 1.5287137031555176, 1.3935269117355347, 1.3700238466262817, 0.6431238651275635, 2.272634744644165, -1.195319652557373, -0.187211811542511, 0.6804201006889343, -1.5881435871124268, -1.34123957157135, -0.5958362221717834, 1.1835399866104126, 0.6504430770874023, 0.20755556225776672, 0.6272881627082825, 1.0674867630004883, 0.0729852095246315, 0.4290655851364136, -0.24811683595180511, -0.04221506789326668], [0.09542185813188553, -1.0728261470794678, -0.7499813437461853, -1.4803169965744019, -1.943134069442749, -0.8876820206642151, -0.41942209005355835, 0.3347199857234955, 0.5010061264038086, -0.04192059859633446, 0.2717738449573517, -1.328365683555603, 1.1136581897735596, 1.6909195184707642, 0.06470548361539841, -0.29810672998428345, -0.2729749083518982, 1.2234807014465332, -0.0964682474732399, 0.13503332436084747, -0.931500256061554, -0.368986040353775, -0.3880924880504608, 2.948430299758911, 1.698353886604309, 0.23493577539920807, -0.6198655962944031, -1.3518130779266357, 0.9612457752227783, -0.3203364312648773, -1.6607180833816528, 0.26454290747642517, -0.6470499634742737, 0.6167387366294861, -0.30189451575279236, -0.4077746272087097, 0.5872525572776794, 0.15538285672664642, -0.4349392354488373, 1.395017385482788, -1.3505021333694458, -0.826062798500061, 0.7617449164390564, 0.2422240525484085, 1.0318764448165894, 0.1835746467113495, 0.07282282412052155, -0.014817306771874428, 0.7045252323150635, 1.1516106128692627, 2.561532497406006, 0.06932340562343597, -0.31623080372810364, 0.06901199370622635, 0.954766571521759, 0.052360162138938904, 0.1759909987449646, 1.5566245317459106, -0.9624635577201843, 0.4254454970359802, 0.44728341698646545, 0.7966574430465698, -0.19552762806415558, 0.23825207352638245, 0.7890614867210388, -0.8093993067741394, 0.6141944527626038, 1.4808133840560913, -0.24379883706569672, -1.4259430170059204, 1.3090167045593262, 0.26690298318862915, -0.24280862510204315, -0.6081026792526245, 1.2063586711883545, 0.39759936928749084, 0.20800627768039703, 0.1960628181695938, 0.2919892370700836, 0.324069082736969, -0.16965898871421814, 0.46265891194343567, 1.6976544857025146, -1.8978859186172485, -1.7663295269012451, -1.657576084136963, 0.5142695903778076, 0.4885309040546417, -0.44911137223243713, -0.4346100687980652, 1.3783913850784302, 0.4896204173564911, 1.6598870754241943, -1.3834773302078247, -1.2689132690429688, 0.2223576158285141, 0.15836092829704285, 2.3278963565826416, 2.033466339111328, 0.28667107224464417, -1.083297848701477, 0.28974005579948425, -0.6228286027908325, -0.011339349672198296, 0.38310590386390686, -1.052910327911377, 1.3987995386123657, -0.39517802000045776, -0.48897361755371094, -0.3342824876308441, 1.487396001815796, 1.9377820491790771, 2.1486566066741943, 1.4671697616577148, -1.1720722913742065, -0.8022416234016418, 0.9613832831382751, 0.7613010406494141, 0.11188042163848877, 0.08644308149814606, -0.15025170147418976, -2.0156538486480713, 0.41212722659111023, 0.6819427013397217, 0.18909496068954468, -1.739755392074585, -0.11755283176898956, -0.6394709944725037], [1.6505160331726074, 0.6100479960441589, 1.0662468671798706, 0.6339080333709717, 0.7818527817726135, 1.2845017910003662, -0.13530004024505615, 0.9562212824821472, 0.7071002721786499, 1.941166639328003, -0.14525842666625977, 0.0928385853767395, 0.3705398738384247, 0.8678682446479797, 1.290795087814331, 1.8439260721206665, 1.2732603549957275, 1.2860580682754517, -0.7786300182342529, 1.4139102697372437, 0.4133809506893158, -1.1606475114822388, -0.4655025005340576, -0.6203223466873169, -0.409030556678772, -0.6314159631729126, 0.9785266518592834, -0.41749298572540283, -0.3865155577659607, 0.8232686519622803, -0.21433064341545105, -0.09295955300331116, -0.8220866322517395, 1.8567287921905518, -0.24892356991767883, -0.4479725956916809, 0.41595977544784546, -0.9026864171028137, -1.4164732694625854, -1.2699623107910156, 1.0923247337341309, -0.05342955142259598, -0.8397958874702454, -1.4540575742721558, 0.6189217567443848, -0.3936733603477478, -0.46221646666526794, -0.46020379662513733, -0.20617333054542542, 1.5451531410217285, -1.048094630241394, -0.19892755150794983, -0.09206683933734894, 0.5353613495826721, 0.07598426192998886, -0.626046359539032, -1.609188199043274, 0.8148037791252136, 0.029228897765278816, -1.712348461151123, 0.09542134404182434, 0.5742948055267334, -0.9251154661178589, -1.1589384078979492, -0.6806362867355347, 0.43240106105804443, -0.2054266631603241, 0.8304914832115173, 0.8384775519371033, -1.709801197052002, 1.3964817523956299, 0.40788474678993225, -1.228418231010437, 0.0720566064119339, 0.017684519290924072, -0.13269759714603424, 1.604440689086914, 2.583050489425659, -1.6575394868850708, 2.1017680168151855, 0.4442685842514038, 0.48439082503318787, 0.7634890675544739, 0.4512571394443512, 0.5618725419044495, 0.7712558507919312, -1.0383508205413818, 1.7450765371322632, -0.6620175242424011, -0.5322036743164062, 0.2643805146217346, 0.24611501395702362, 0.5617098212242126, -1.8139086961746216, 0.5170422196388245, -0.6288145184516907, -0.1466820389032364, 0.2594664394855499, -0.03038434125483036, 0.3164684474468231, -1.10382080078125, 0.16033704578876495, -0.3322814404964447, 0.460968017578125, -0.3603130877017975, -0.3270188271999359, 0.23241402208805084, 0.511588990688324, -0.3937407433986664, 0.8739405870437622, 0.732288658618927, 1.3966206312179565, 0.330258846282959, -0.7505674958229065, 1.8713252544403076, -0.3340294361114502, 1.4098066091537476, -1.754701018333435, -0.4851500689983368, -0.6150152087211609, -0.016567915678024292, -2.5164389610290527, 0.9183066487312317, 1.6192529201507568, 0.38327348232269287, 0.42599862813949585, -0.3087679445743561, -0.7287935614585876], [0.9768512845039368, -1.6546564102172852, 0.7591464519500732, 0.3330989181995392, 0.9304397702217102, 0.6348062753677368, -2.127659797668457, -0.9140458703041077, -0.974033772945404, -0.04483996704220772, -0.11413738131523132, -0.665334939956665, 2.2626683712005615, -0.23823556303977966, 2.0835418701171875, 1.640221357345581, -0.8549426198005676, -1.4991087913513184, -1.9067175388336182, 0.06632789224386215, 1.4498841762542725, -0.5218487977981567, 0.7846105098724365, -1.5524965524673462, 1.316183090209961, -0.29311272501945496, -0.23067861795425415, 1.1284629106521606, 1.3626633882522583, -0.9693430662155151, -0.3882102072238922, 1.899723768234253, -1.0460574626922607, -0.34060072898864746, -0.23203958570957184, -0.12922371923923492, -0.12119078636169434, -1.2192540168762207, -2.276484966278076, -0.635094165802002, 0.14697451889514923, -0.06179101765155792, -1.1236202716827393, 0.5427331924438477, -1.033872365951538, 0.6735479235649109, -0.40183839201927185, -2.114384651184082, 0.891054630279541, 0.23333309590816498, 1.0856099128723145, -1.3426322937011719, -1.1172420978546143, -1.6682896614074707, 1.4869530200958252, 0.4148353338241577, -0.921334981918335, 1.1636683940887451, 0.2599294185638428, 0.8874123096466064, -0.586929440498352, 2.025660276412964, 0.1010156124830246, -2.005129814147949, 0.8901152610778809, 0.603194534778595, 1.3158477544784546, 0.5482871532440186, -0.10698385536670685, 1.496488332748413, 1.9647403955459595, -2.29923415184021, 1.4431432485580444, 1.007192611694336, -0.5451205968856812, 1.551287293434143, -1.5665303468704224, -0.6344833970069885, -0.5120375752449036, 0.8075942397117615, 1.1656781435012817, 0.38271012902259827, -0.6095024347305298, -0.5570560693740845, -0.47245487570762634, 0.2708597183227539, 0.3623385727405548, -0.19650264084339142, -1.7537875175476074, 0.5744028687477112, -0.4105498492717743, -1.2694977521896362, 0.08464591950178146, -0.5471100211143494, -1.4860583543777466, -0.7033272981643677, -0.30446386337280273, -0.40307679772377014, -0.7908977270126343, -0.9501363039016724, -0.016672948375344276, -1.8878273963928223, 0.6969567537307739, 0.0709969624876976, 0.946717381477356, -0.09274804592132568, -1.1358450651168823, -0.9740081429481506, 0.11566516011953354, -0.59129798412323, -0.40207400918006897, -0.13533653318881989, 0.8866983652114868, -2.130979537963867, -0.8382043838500977, -0.576756477355957, 1.6790565252304077, -0.17297981679439545, -1.6391534805297852, 1.0085607767105103, -0.42899999022483826, 0.32583507895469666, 1.0650982856750488, 0.08174420893192291, -0.9669265151023865, -0.8434995412826538, 1.5212706327438354, -0.7624858617782593], [-0.28052133321762085, 0.15780644118785858, -0.16225555539131165, 0.17700794339179993, -0.09783345460891724, -0.3222994804382324, 2.083615779876709, 0.06974713504314423, -0.37324485182762146, 0.13105568289756775, 0.042408980429172516, 0.14284375309944153, 0.05292171984910965, -0.07005148380994797, -0.19380296766757965, -0.1349199414253235, 0.042510390281677246, 0.5229876637458801, 0.12167274951934814, 0.33168670535087585, -0.4376254081726074, -0.04590894654393196, -0.06544088572263718, 0.0438070222735405, -0.23844663798809052, -0.1624034345149994, -0.3282352387905121, -0.0767659991979599, -0.3475036323070526, -0.3337399363517761, -0.3422829508781433, -0.5510746240615845, -0.5145179629325867, -0.9405092000961304, -0.736080527305603, 0.18643474578857422, 0.03587888926267624, -0.208528533577919, -0.0327942855656147, 0.06532593816518784, 0.7821359038352966, 0.2741217017173767, -0.42993348836898804, 0.11881480365991592, 0.33420488238334656, -0.03964138403534889, -0.6861351132392883, 0.056038472801446915, 0.0754861980676651, -0.18226933479309082, 0.06667715311050415, -0.4404786229133606, 0.35657066106796265, 0.3914831280708313, -0.18123406171798706, -0.6022676825523376, 0.12561315298080444, -0.29499101638793945, 0.16918838024139404, 0.4053463339805603, 0.193607896566391, 0.33458977937698364, 0.3502986431121826, 0.05012983828783035, 0.06985147297382355, -0.6009034514427185, 0.24506518244743347, 0.6266245245933533, -0.1094830334186554, 0.9648157954216003, -0.528346836566925, -0.011942609213292599, -0.4741978943347931, 0.37631723284721375, -0.10261256247758865, -2.1412863731384277, 0.3630780577659607, -0.3710448443889618, -0.06273051351308823, -0.07998120039701462, 0.15847660601139069, -0.020266268402338028, -0.5343319773674011, 0.1450263112783432, 0.3038230836391449, -0.6182457804679871, -0.3178442120552063, 1.540928602218628, 0.25824469327926636, -0.8661354780197144, 0.0012851766077801585, 0.2615428864955902, -0.21438850462436676, 0.17019551992416382, 0.058709029108285904, 0.20801235735416412, -0.5187202095985413, -0.4968016743659973, -0.18263739347457886, -1.534767508506775, 0.36523810029029846, -0.5132323503494263, 0.15665385127067566, 0.21644315123558044, 0.02018953301012516, -0.19485045969486237, -0.001746542053297162, 0.7105309963226318, -0.09741756319999695, 0.23832492530345917, -0.3871353566646576, 0.11658604443073273, -0.09997247904539108, 0.10536491870880127, -0.13540208339691162, 0.25387901067733765, -0.03371964767575264, 0.19580209255218506, 0.17445121705532074, 0.3307570815086365, 0.30615025758743286, -0.1043969914317131, -0.1945704072713852, -0.19735313951969147, -0.2401885688304901, -0.38729798793792725, 0.04634475335478783, 0.25590404868125916], [0.21773402392864227, 0.37748709321022034, 0.2410242259502411, -0.9172512888908386, -0.6999556422233582, 0.4406912624835968, 0.7582327127456665, 0.39426398277282715, -0.03712276369333267, 0.29635751247406006, 0.6870471835136414, 0.8946351408958435, -0.5222402215003967, 2.331118583679199, 0.36644718050956726, -0.4898046553134918, 0.36399462819099426, 0.8832034468650818, -0.5462636351585388, 0.6917005777359009, 2.3530662059783936, 1.3720479011535645, -0.1935703009366989, -0.6292604804039001, -0.5218134522438049, 0.7502275705337524, 0.1055675521492958, -0.1408824920654297, 1.2578681707382202, -0.16346760094165802, 0.5768656730651855, -1.5661195516586304, -1.572805404663086, -0.8452644944190979, 0.17091411352157593, -0.2905358374118805, 0.18838001787662506, 0.12061719596385956, -0.6922662854194641, -0.5211328268051147, -0.5867363810539246, -0.09868572652339935, -0.2456686794757843, -1.0703566074371338, -0.8359642624855042, -0.33434614539146423, 0.052274346351623535, -0.5253139734268188, -0.3613157570362091, 0.4917338192462921, 1.0724289417266846, -0.4628174304962158, 0.762385904788971, -0.2899259328842163, 0.42606601119041443, -0.42166757583618164, 0.19446177780628204, 0.8863670825958252, 1.0015641450881958, -0.4782223701477051, 0.22762688994407654, 